tree
version=v4
num_class=1
num_tree_per_iteration=1
label_index=0
max_feature_idx=17
objective=regression
feature_names=Column_0 Column_1 Column_2 Column_3 Column_4 Column_5 Column_6 Column_7 Column_8 Column_9 Column_10 Column_11 Column_12 Column_13 Column_14 Column_15 Column_16 Column_17
feature_infos=[-0.087011376989629241:0.065191617927956358] [13.393153582185892:14.968611031916453] [13.393153582185892:14.968611031916453] [13.393153582185892:14.968611031916453] [13.393153582185892:14.968611031916453] [13.393153582185892:14.968611031916453] [13.393916067926225:14.940656526710368] [0:0.047298975034897758] [13.396088393010242:14.935809081048047] [0.0012084176212949567:0.056827193638149413] [7.1471972859324655:8.594200527777021] [9.4889746539166087:9.8086438069032198] [3.5:6.25] [-0.089999999999999997:5.9500000000000002] [-2.2000000000000002:5.8399999999999999] [0:6] [1:12] [1:4]
tree_sizes=2200 2348 2793 1786 2706 2818 2709 1734 1329 1508 2364 1175 2361 2182 2175 1998 1174 2186 1556 1715 2455 2089 1645 801 1169 885 3684 1086 1156 1085 2626 2097 1080 1439 1928 2463 980 1163 3467 1530 1150 1076 1435 2912 1160 2356 2589 1915 2909 2183 994 1170 976 1163 1076 800 2477 1724 2463 3557 2195 894 1351 894 2942 1534 1077 1347 2188 2266 897 2531 3203 973 895 1084 1446 890 2167 3213 1454 2573 1081 1730 890 2280 2108 1838 1243 1069 988 799 1169 2014 2549 2178 1795 1159 2449 1626 1455 987 1061 1166 1162 973 995 1339 894 2749 1074 1920 2748 2629 1620 890 2646 889 2362 1903 2657 1171 2109 1433 1626 1608 3016 2101 988 2182 802 1903 1907 2002 1162 805 980 3104 1157 1545 894 1169 2173 1814 2921 1436 980 1170 2570 980 2355 2640 1247 1353 1813 1070 981 894 888 1907 1628 1549 1080 804 1927 3212 1070 1169 888 2846 1448 2008 1164 2919 1453 2109 1165 1081 1081 2915 2632 1070 1806 802 1806 984 2908 2560 3369 1180 3083 3030 2658 888 3387 1354 891 891 1166 1079 977 1645 2751 2753 2370 1424 1259 2198 798 1154 989 1536 892 1357 2171 1440 1932 1628 2274 1450 1917 1440 1260 2002 890 1918 803 985 1544 1167 1073 891 895 1159 1077 1444 3027 1801 889 795 1449 2765 891 1360 1546 2157 2092 801 800 1001 1066 889 1724 2106 1731 1433 1909 1072 989 2567 1348 2087 2642 984 2839 2465 1266 801 1804 2810 987 802 1725 1909 2001 892 1914 809 1755 2170 3377 2174 3302 1445 1432 1147 1171 1535 1823 2557 1608 1691 1638 1186 2095 901 1533 1265 806 1620 989 1354 2085 2285 2013 983 1539 1623 1903 2281 1916 3108 2911 1925 2110 2277 1069 808 1073 2338 1164 893 2659 895 1359 987 1168 893 1645 977 1266 2926 804 2017 891 986 890 1536 1451 1415 2456 2095 1071 803 1553 1083 1629 985 1549 2088 1183 2459 1080 805 807 1640 1454 983 1617 3193 1166 984 2476 1267 1633 886 1549 1169 1082 2646 1001 1797 1725 2184 1926 972 1529 2090 2663 869 801 1546 1261 1549 799 802 1081 1719 897 1605 1357 1709 1001 1718 907 983 2654 1627 887 1438 1523 2176 1450 986 2185 1084 1073 1155 789 1062 1166 1071 890 1359 807 1720 1829 810 1159 1356 898 1074 1626 1352 1163 1732 991 1249 2661 1074 1625 1541 1168 2090 2562 1350 1651 1716 1527 3111 1550 983 1333

Tree=0
num_leaves=23
num_cat=0
split_feature=9 3 14 14 1 13 13 10 8 3 8 10 10 7 1 14 3 0 9 8 7 9
split_gain=0.00549971 0.00328794 0.00366973 0.00757236 0.00680471 0.00252888 0.00183246 0.00214435 0.00438941 0.00160443 0.00143325 0.0016394 0.00135753 0.000981279 0.000978657 0.000857445 0.000728871 0.000567806 0.000442008 0.00043565 0.000235504 7.36291e-05
threshold=0.013611216251951387 14.879012939457489 1.7600000000000002 1.0300000000000002 14.669500173025236 1.1750000000000003 1.6300000000000001 8.5279981166955068 14.548478970744975 14.47561775090702 14.363590659943524 8.0836186899941271 7.8868668074860819 0.0067005782747654001 14.844594101352579 2.6750000000000003 14.217971101161742 1.0000000180025095e-35 0.01019850605578693 13.764714423048014 0.010602620442705614 0.0092300246953250873
decision_type=2 2 2 2 2 2 2 2 2 2 2 2 2 2 2 2 2 2 2 2 2 2
left_child=5 2 3 20 10 17 12 8 9 -8 16 -12 13 15 -9 -7 -4 -1 -16 -15 -2 -10
right_child=1 -3 4 -5 -6 6 7 14 21 -11 11 -13 -14 19 18 -17 -18 -19 -20 -21 -22 -23
leaf_value=0.0027715654187904157 0.0018489413626833415 0.00036650295721149724 0.0019857114487904048 0.0046485496701064635 -0.00060470016366791853 0.00087923103415075347 0.0014540807677485758 0.0014646451003833591 0.0033939141864810967 0.00030624817941033605 0.0038291534470610272 0.0021918490906791353 5.1021282754990481e-05 0.0019571923486323113 0.00088466806585751857 0.0017732143918779177 0.0010690109432206834 0.0018042971218969108 -0.00013811979095952414 0.0012812897897515124 0.001115291540739285 0.0024942773874520258
leaf_weight=37 21 27 179 41 24 253 1615 30 20 31 22 71 32 45 31 32 25 36 31 56 20 28
leaf_count=37 21 27 179 41 24 253 1615 30 20 31 22 71 32 45 31 32 25 36 31 56 20 28
internal_value=0.00149628 0.00204599 0.0021695 0.00314826 0.00190055 0.00139162 0.00135861 0.00143346 0.00147753 0.00142935 0.00213062 0.00266679 0.00104282 0.00114038 0.00066006 0.000982373 0.00186663 0.00233927 0.000298894 0.00158879 0.00148946 0.00299675
internal_weight=2707 430 403 82 321 2277 2204 1786 1694 1646 297 93 418 386 92 285 204 73 62 101 41 48
internal_count=2707 430 403 82 321 2277 2204 1786 1694 1646 297 93 418 386 92 285 204 73 62 101 41 48
is_linear=0
shrinkage=1


Tree=1
num_leaves=24
num_cat=0
split_feature=9 4 5 8 9 10 4 13 13 10 6 6 8 2 10 5 9 15 0 9 7 4 9
split_gain=0.00387566 0.00322706 0.0043302 0.00336411 0.0031682 0.00211775 0.00232852 0.00181697 0.00128575 0.00156301 0.00323017 0.00129535 0.00111978 0.000753667 0.000574358 0.000738785 0.000504588 0.000464963 0.000326894 0.000218144 0.000190905 0.000151207 6.16925e-05
threshold=0.013611216251951387 14.864056116728873 14.761942427920443 14.644048980206486 0.019360744810760912 7.3129236764038161 14.383377881949206 1.1750000000000003 1.6300000000000001 8.5279981166955068 14.556589348184154 14.474883671882422 13.756958498008368 14.866856383438146 7.8868668074860819 13.867628399599781 0.0063855776702180364 2.5000000000000004 0.001770960636379826 0.0051775883256871503 0.0062264659088125647 13.743477210694323 0.0092300246953250873
decision_type=2 2 2 2 2 2 2 2 2 2 2 2 2 2 2 2 2 2 2 2 2 2 2
left_child=7 2 3 5 -5 -2 -7 17 12 10 11 -10 16 18 15 -14 19 -1 -11 -9 -19 -18 -12
right_child=1 -3 -4 4 -6 6 -8 8 9 13 22 -13 14 -15 -16 -17 21 20 -20 -21 -22 -23 -24
leaf_value=0.0011617040316844851 0.0021673306176885274 -0.00098541713667060424 0.0026179534808933049 0.00071519082250055875 -0.0018666956001491956 0.00023289669321295277 0.0013045529350746072 -2.8435014497547949e-05 -3.4313470586124377e-05 -6.6773142587185839e-05 0.0016351411849599342 -0.0010802232510479144 -0.00060185044647532472 -0.0013846180356339121 -0.0012309329540881638 0.00022330343403281189 2.2159391530030264e-07 0.00061099113066685003 -0.00084462280000818855 -0.00071431465725250282 -6.8666758786912368e-05 0.00039916616635026435 0.00085249078414050548
leaf_weight=32 20 36 24 20 28 228 74 23 1616 44 20 30 197 28 32 34 56 20 20 28 21 48 28
leaf_count=32 20 36 24 20 28 228 74 23 1616 44 20 30 197 28 32 34 56 20 20 28 21 48 28
internal_value=6.43465e-07 0.000462112 0.000603805 0.000444043 -0.000820461 0.00064109 0.000510445 -8.72084e-05 -0.00011519 -5.24891e-05 -1.48701e-05 -5.62037e-05 -0.000379713 -0.000712786 -0.000588683 -0.000478387 -1.85402e-05 0.000716035 -0.000348721 -0.00043217 0.000289168 0.000193284 0.00128838
internal_weight=2707 430 394 370 48 322 302 2277 2204 1786 1694 1646 418 92 263 231 155 73 64 51 41 104 48
internal_count=2707 430 394 370 48 322 302 2277 2204 1786 1694 1646 418 92 263 231 155 73 64 51 41 104 48
is_linear=0
shrinkage=0.168553


Tree=2
num_leaves=29
num_cat=0
split_feature=9 10 4 6 11 6 11 11 4 13 11 14 1 16 9 2 11 4 14 11 2 14 3 11 13 4 11 13
split_gain=0.002927 0.00264194 0.00223914 0.00266218 0.00165829 0.00143055 0.00118105 0.00167157 0.001043 0.0012229 0.0010037 0.000926622 0.00268792 0.000976035 0.000966419 0.000727616 0.000671735 0.000617948 0.000605706 0.000602416 0.00087475 0.000562288 0.000515902 0.000592566 0.000476829 0.00038923 0.000301203 0.00010184
threshold=0.012108983740610329 7.3129236764038161 14.864056116728873 14.784590154189202 9.5788786806768886 14.655548084161117 9.6523945262495534 9.7364820683620295 13.756291057587051 3.4800000000000009 9.5386265332969646 3.0650000000000004 14.465489209054914 10.500000000000002 0.0085053243536842415 14.899009151561847 9.6571073548378745 14.85596391685673 2.0250000000000004 9.571121021466622 13.78762522230536 1.8350000000000002 13.766845248204922 9.5831789766642377 2.6250000000000004 13.779364976956904 9.522715468836326 2.1550000000000007
decision_type=2 2 2 2 2 2 2 2 2 2 2 2 2 2 2 2 2 2 2 2 2 2 2 2 2 2 2 2
left_child=6 -2 3 4 24 -6 8 11 9 10 26 14 13 -13 16 -4 -8 -9 -16 20 25 -12 27 -24 -3 -10 -1 -21
right_child=1 2 15 -5 5 -7 7 17 19 -11 21 12 -14 -15 18 -17 -18 -19 -20 22 -22 -23 23 -25 -26 -27 -28 -29
leaf_value=0.00011725676374513688 0.0017590475259060304 7.9144446895157178e-05 -0.0015159084416120146 0.0019112434281570842 0.0005442006653550638 -0.00034633889193621859 0.00015820708864712141 -0.00015282288849634453 -0.00053761053452726327 0.00086245038189730117 0.00021376524216923132 0.00031811837629813224 -0.0014123343678901525 -0.00046304661790048506 -0.00029123839070477705 -0.00013044425308946184 0.0012248536937960305 -0.0011535351850853028 0.00052610552394368967 -0.00035582831229294555 -0.0014420426110601271 -0.00020068929293169931 0.00027475955986055545 -0.0002336659844433799 -0.00072279244005164322 0.00019402383956911031 0.00097167392816726466 -0.00084313115006348464
leaf_weight=21 31 33 20 25 312 58 25 38 89 38 109 282 28 50 45 21 58 31 50 33 25 525 70 552 50 24 27 37
leaf_count=21 31 33 20 25 312 58 25 38 89 38 109 282 28 50 45 21 58 31 50 33 25 525 70 552 50 24 27 37
internal_value=1.35217e-06 0.000346877 0.000248488 0.000353175 0.000249684 0.000402113 -8.72612e-05 0.000111454 -0.000165193 -1.64159e-05 -7.06065e-05 0.000212904 5.52971e-05 0.000195901 0.00052254 -0.000887832 0.000927886 -0.000644739 0.000142876 -0.000293457 -0.000611406 -0.000128414 -0.000226571 -0.000174884 -0.000415616 -0.000380539 0.000639391 -0.000648197
internal_weight=2707 550 519 478 453 370 2157 607 1550 720 682 538 360 332 178 41 83 69 95 830 138 634 692 622 83 113 48 70
internal_count=2707 550 519 478 453 370 2157 607 1550 720 682 538 360 332 178 41 83 69 95 830 138 634 692 622 83 113 48 70
is_linear=0
shrinkage=0.168553


Tree=3
num_leaves=18
num_cat=0
split_feature=9 11 3 10 6 6 17 13 11 1 3 5 5 9 11 0 4
split_gain=0.00212978 0.00233233 0.00447916 0.00187335 0.00200475 0.00174299 0.00136974 0.00109208 0.00080125 0.00165933 0.00123906 0.00175696 0.000667661 0.00061117 0.000537452 0.000388977 0.000111933
threshold=0.013611216251951387 9.5688640972618106 13.67911382798526 8.5279981166955068 14.784590154189202 14.655548084161117 1.5000000000000002 1.1750000000000003 9.7364820683620295 14.552195925962833 14.47561775090702 14.465489209054914 14.85913852279625 0.010425007993200066 9.7643057420123878 1.0000000180025095e-35 13.531156054857005
decision_type=2 2 2 2 2 2 2 2 2 2 2 2 2 2 2 2 2
left_child=7 6 -3 4 5 -4 -2 15 9 10 11 -9 14 -11 -10 -1 -8
right_child=1 2 3 -5 -6 -7 16 8 12 13 -12 -13 -14 -15 -16 -17 -18
leaf_value=0.00091260970913434726 -0.0015818773814898122 0.0027206812330524367 0.00050517542081474933 -0.00090671540028328481 0.0017729620673426632 -0.00056911377816803814 -0.00027050488847887421 -9.7348764024591494e-05 0.0003959389840149055 0.0013012998075247837 -0.0010549766861830175 0.0010126315705542405 -0.001233665510681046 0.0002562024110438137 -0.00062650181323779764 0.00013448180260814137 0.00022199932834636861
leaf_weight=37 20 20 245 27 26 48 20 1991 21 27 33 37 26 38 31 36 24
leaf_count=37 20 20 245 27 26 48 20 1991 21 27 33 37 26 38 31 36 24
internal_value=9.45059e-07 0.000343034 0.000507269 0.000346902 0.000463917 0.000323309 -0.000568161 -6.41776e-05 -8.58797e-05 -6.57369e-05 -9.28544e-05 -7.49495e-05 -0.000601935 0.000745365 -0.000214405 0.000558516 -5.49347e-06
internal_weight=2707 430 366 346 319 293 64 2277 2204 2126 2061 2028 78 65 52 73 44
internal_count=2707 430 366 346 319 293 64 2277 2204 2126 2061 2028 78 65 52 73 44
is_linear=0
shrinkage=0.168553


Tree=4
num_leaves=28
num_cat=0
split_feature=5 11 17 11 1 1 9 5 1 4 9 14 2 5 9 11 2 11 13 9 4 11 4 5 9 15 1
split_gain=0.00183002 0.00230111 0.00283772 0.00233736 0.00175324 0.00143942 0.00203205 0.00194566 0.0018385 0.000860841 0.000841451 0.000734231 0.00363949 0.00115069 0.000685995 0.00066101 0.00077417 0.000628941 0.000617119 0.000603456 0.000525005 0.000514499 0.000506161 0.000854363 0.000305025 0.000244258 7.46187e-06
threshold=14.899009151561847 9.6549140073294222 1.5000000000000002 9.7253472381191255 14.335195704922045 14.669500173025236 0.017298834235539819 14.552195925962833 14.465489209054914 13.756291057587051 0.017521562658836344 1.8350000000000002 13.624955013254473 13.739169179088156 0.015345440488296827 9.5709231624598754 13.78762522230536 9.75961704710849 3.4800000000000009 0.0051563166734293281 14.85913852279625 9.5523863320570221 14.153053585947911 13.882701698222638 0.010138522913825639 3.5000000000000004 13.799889048094309
decision_type=2 2 2 2 2 2 2 2 2 2 2 2 2 2 2 2 2 2 2 2 2 2 2 2 2 2 2
left_child=1 9 3 4 19 7 17 8 -4 11 -9 12 -1 -14 -6 16 24 -7 21 -3 -5 -13 23 -17 -11 -24 -18
right_child=-2 2 5 20 14 6 -8 10 -10 15 -12 18 13 -15 -16 22 26 -19 -20 -21 -22 -23 25 -25 -26 -27 -28
leaf_value=0.002167651121902558 -0.0011859946917816102 -7.8176287471006233e-05 0.00024022814913515504 0.0024071026031206311 0.00014210727905570317 0.00019169093131061714 -0.0018294148327529975 0.0016253019484786461 -0.00055956241007124605 -0.0003972581961636308 0.0002045237723497396 0.00014978332547124293 -0.0010018040754201927 0.00022662101462661026 -0.0010520966612084807 -7.8625473578792433e-05 -0.00067759566454217738 -0.00061549284422169172 0.00064031024228398817 0.00090733421807838303 0.0010068020314483932 -0.00018251480547541813 0.00060406228241718755 -0.00051880816934861385 0.00023884174100525303 -9.5904543226446392e-05 -0.0012990297577981256
leaf_weight=22 32 20 385 20 29 68 20 31 99 96 20 185 22 117 20 597 21 40 31 111 28 438 33 155 24 21 22
leaf_count=22 32 20 385 20 29 68 20 31 99 96 20 185 22 117 20 597 21 40 31 111 28 438 33 155 24 21 22
internal_value=1.57364e-06 1.77021e-05 0.000238263 0.000745182 0.000443932 6.01566e-05 -0.000438323 0.000182057 7.30328e-05 -9.27518e-05 0.00112877 3.48454e-05 0.000352235 7.38306e-06 -0.000391033 -0.000199774 -0.000505302 -0.000119325 -4.50653e-05 0.000758999 0.001743 -8.34375e-05 -0.000135559 -0.000171866 -0.000265887 0.000344568 -0.00108666
internal_weight=2707 2675 891 228 180 663 128 535 484 1784 51 815 161 139 49 969 163 108 654 131 48 623 806 752 120 54 43
internal_count=2707 2675 891 228 180 663 128 535 484 1784 51 815 161 139 49 969 163 108 654 131 48 623 806 752 120 54 43
is_linear=0
shrinkage=0.168553


Tree=5
num_leaves=29
num_cat=0
split_feature=5 11 16 11 16 1 0 0 1 13 5 11 7 2 7 9 10 13 11 1 10 5 7 16 3 9 7 7
split_gain=0.00132825 0.00161674 0.00204115 0.00177418 0.00203795 0.00175712 0.00129527 0.00109156 0.00123499 0.000735993 0.000908699 0.000701726 0.000682213 0.000603368 0.000804316 0.000813719 0.00108435 0.000717632 0.00052025 0.000888721 0.000513712 0.000528367 0.000430114 0.000403715 0.000300937 0.000240235 0.000142982 3.20055e-05
threshold=14.899009151561847 9.6549140073294222 3.5000000000000004 9.7261117335140366 2.5000000000000004 14.335195704922045 0.0047449740612464106 0.0014953376211561677 14.465489209054914 2.2950000000000004 14.726788727813377 9.6797030312907104 0.0068310733254370298 13.746696098520232 0.0021326371205426888 0.0097168272204959782 7.33311773884905 3.4800000000000009 9.5668742854382227 13.790705307687608 7.4766081055180669 13.79275344002094 0.0047682874651222154 6.5000000000000009 14.879012939457489 0.00538734052682427 0.0012538072189873012 0.0017625660259462481
decision_type=2 2 2 2 2 2 2 2 2 2 2 2 2 2 2 2 2 2 2 2 2 2 2 2 2 2 2 2
left_child=1 13 3 4 5 -3 7 8 -4 12 -11 -6 -8 14 26 17 -17 -16 19 22 25 -22 -15 -9 -5 -20 -1 -28
right_child=-2 2 6 24 11 -7 9 23 -10 10 -12 -13 -14 18 15 16 -18 -19 20 -21 21 -23 -24 -25 -26 -27 27 -29
leaf_value=0.00090226015533155523 -0.001010113913293497 0.00028118622014135182 0.00031162416323916387 0.0019076788719654411 0.0016182164046478742 -0.0012357090875259253 -5.1555455872222774e-05 0.00013697188114701541 -0.00027659477663682057 0.00012974321272691961 -0.00099784376461540029 0.00048752947832982757 -0.0012648403256710558 -0.00059584059030016426 -0.00017358611820786211 0.00080841494518773052 -7.1413636253540511e-05 0.00074877913114699613 -4.6271094351389187e-05 -0.0013786956058666085 0.00018233996722783814 -0.00013429893465288084 -3.7001572506796545e-06 0.001006071007676161 0.00077253680045174188 -0.00060010566384549645 0.00016360029876638979 0.00048754786885203102
leaf_weight=23 32 88 251 26 31 24 21 23 164 98 21 38 33 57 453 66 90 21 32 20 192 628 81 52 21 76 24 21
leaf_count=23 32 88 251 26 31 24 21 23 164 98 21 38 33 57 453 66 90 21 32 20 192 628 81 52 21 76 24 21
internal_value=1.62727e-06 1.53689e-05 0.000200245 0.000630167 0.000371354 -7.78214e-05 4.91972e-05 0.000189128 7.86436e-05 -0.000341874 -9.73138e-05 0.00106204 -0.000832684 -7.72133e-05 4.48713e-05 -1.6108e-05 0.000312532 -0.000126195 -0.000155571 -0.000434435 -0.000106248 -5.9551e-05 -0.000259263 0.000762124 0.00150992 -0.000444442 0.000577072 0.000345129
internal_weight=2707 2675 891 228 181 112 663 490 415 173 119 69 54 1784 698 630 156 474 1086 158 928 820 138 75 47 108 68 45
internal_count=2707 2675 891 228 181 112 663 490 415 173 119 69 54 1784 698 630 156 474 1086 158 928 820 138 75 47 108 68 45
is_linear=0
shrinkage=0.168553


Tree=6
num_leaves=28
num_cat=0
split_feature=9 11 3 9 11 4 7 11 7 7 16 7 14 7 9 14 0 9 2 11 9 2 9 7 0 10 9
split_gain=0.00107738 0.00166692 0.00325127 0.00158883 0.00168326 0.0041808 0.00142421 0.001404 0.00106357 0.00102445 0.00072677 0.000513418 0.000558969 0.00107514 0.00113227 0.000659224 0.000543047 0.000483003 0.000390748 0.000466075 0.000389581 0.0006949 0.000506175 0.000364981 0.000363935 0.000101751 5.51e-05
threshold=0.013611216251951387 9.5788786806768886 13.730497035470227 0.01978485361858812 9.7266728168896268 14.663522082262283 0.0073743870419275635 9.713546054824695 0.010304770213427647 0.016945649404507709 5.5000000000000009 0.0020253720539027127 4.1550000000000011 0.0065333573335397037 0.010952479300281681 4.1250000000000009 0.0046672976311583634 0.0080233935562941134 13.752037993089383 9.6401890953709124 0.0069539060969395 14.866856383438146 0.0053545801724602373 0.00391316268406531 0.010784797509630019 7.1914029665483197 0.0047543861651006981
decision_type=2 2 2 2 2 2 2 2 2 2 2 2 2 2 2 2 2 2 2 2 2 2 2 2 2 2 2
left_child=11 6 -3 7 5 -5 -2 24 -9 -6 -8 18 15 16 17 20 23 -15 25 26 22 -22 -13 -14 -4 -1 -20
right_child=1 2 3 4 9 -7 10 8 -10 -11 -12 12 13 14 -16 -17 -18 -19 19 -21 21 -23 -24 -25 -26 -27 -28
leaf_value=0.000232231021245334 0.00069633071099131476 0.0022854998936660403 0.00033740184000119862 0.00018698579467643598 -0.00017388034335911426 -0.0022827174366984756 -0.0014750484841815612 0.00027309684598891734 0.0016408981676047203 0.0012514858296283412 -0.00028704984482942354 -4.527854313507848e-05 0.00027578354298268582 7.2432098325038648e-06 0.00071053416627691148 -0.0007254225650266022 -2.3317555754106561e-05 -0.00099544153986600315 -0.00048907730342182129 0.00058224951777257781 2.779848187057409e-05 -0.00073311569881313095 -0.00029294248468996831 0.0011160596913597951 -0.00037602528109186646 0.00072198897680676613 -9.9908329908149173e-05
leaf_weight=25 20 20 107 56 27 25 24 28 42 24 36 554 27 21 21 41 30 34 22 20 943 31 405 42 21 39 22
leaf_count=25 20 20 107 56 27 25 24 28 42 24 36 554 27 21 21 41 30 34 22 20 943 31 405 42 21 39 22
internal_value=1.92463e-06 0.000245233 0.000403579 0.000261055 -0.000188291 -0.000652778 -0.000432217 0.000558356 0.00114236 0.000542207 -0.000830578 -4.43922e-05 -6.41298e-05 0.000221026 -0.000247957 -8.98564e-05 0.00057659 -0.00063977 0.000277945 -1.96303e-05 -7.47549e-05 3.84606e-07 -0.000150755 0.000823658 0.00021159 0.000558168 -0.000321689
internal_weight=2707 430 350 330 132 81 80 198 70 51 60 2277 2149 175 76 1974 99 55 128 64 1933 974 959 69 128 64 44
internal_count=2707 430 350 330 132 81 80 198 70 51 60 2277 2149 175 76 1974 99 55 128 64 1933 974 959 69 128 64 44
is_linear=0
shrinkage=0.168553


Tree=7
num_leaves=17
num_cat=0
split_feature=1 7 11 7 7 1 14 7 7 3 11 11 7 8 14 3
split_gain=0.000976668 0.00103283 0.000722833 0.000775213 0.000832788 0.00122266 0.000797038 0.00223493 0.0011375 0.000648332 0.000557293 0.00058394 0.00114285 0.000611973 0.00032364 0.000372323
threshold=14.899009151561847 0.019779387682009403 9.6423013332189509 0.0062264659088125647 0.0040774570662972373 14.121155262958894 3.7700000000000005 0.014050949349280853 0.015995398448572933 14.468355899780379 9.5523863320570221 9.5658053796608407 0.01115029458094135 13.779227682055506 3.4200000000000004 13.544357572467691
decision_type=2 2 2 2 2 2 2 2 2 2 2 2 2 2 2 2
left_child=1 2 10 4 9 -6 8 -8 -5 -4 14 13 -13 -12 15 -1
right_child=-2 -3 3 6 5 -7 7 -9 -10 -11 11 12 -14 -15 -16 -17
leaf_value=0.00047209746289594091 -0.00086532658068261042 0.00082987283888781994 0.00012298925230175853 0.00018835546215150559 6.8799381211857521e-05 0.00079428271996512191 -0.00051254943665300819 0.0011880042998305674 -0.00097751090436459516 -0.00078219229374748545 -0.00023003044213601299 -9.0854425600105351e-05 0.00069609357721196687 -0.0010329743688461124 -0.00042771848525933293 3.6049699205246687e-05
leaf_weight=93 32 39 148 384 122 142 166 21 21 22 301 987 51 26 20 132
leaf_count=93 32 39 148 384 122 142 166 21 21 22 301 987 51 26 20 132
internal_value=2.23951e-06 1.40231e-05 5.87989e-07 0.000110896 0.000280802 0.000465708 -1.47608e-05 -0.000298659 0.000118043 -1.06588e-05 -6.98e-05 -0.000111856 -4.94055e-05 -0.000306741 0.000162252 0.000221968
internal_weight=2707 2675 2636 1026 434 264 592 187 405 170 1610 1365 1038 327 245 225
internal_count=2707 2675 2636 1026 434 264 592 187 405 170 1610 1365 1038 327 245 225
is_linear=0
shrinkage=0.168553


Tree=8
num_leaves=13
num_cat=0
split_feature=10 1 1 7 10 16 1 15 1 5 16 11
split_gain=0.00084711 0.00222274 0.00113823 0.00184014 0.00176266 0.00159337 0.00135972 0.000747949 0.00108664 0.000621191 0.000580432 0.000140794
threshold=8.5279981166955068 14.716890594681043 14.669500173025236 0.015995398448572933 8.149661160958404 5.5000000000000009 14.468355899780379 4.5000000000000009 14.85861007462305 14.879012939457489 1.5000000000000002 9.7146306634479842
decision_type=2 2 2 2 2 2 2 2 2 2 2 2
left_child=1 2 3 4 6 -5 -1 8 -2 -10 -3 -6
right_child=7 10 -4 5 11 -7 -8 -9 9 -11 -12 -13
leaf_value=-1.2103336553079462e-05 1.0027332144376295e-05 0.0015034216793559936 -0.00090262379605446895 0.0016780452687342191 0.00039196643684458865 -0.00017768032600672083 -0.00074920502925639892 0.00021811636589717662 -0.0018289560793815455 -0.0005333168904570456 0.00043751033668278436 0.0010321021317690256
leaf_weight=2307 37 28 35 30 23 20 69 34 20 28 36 40
leaf_count=2307 37 28 35 30 23 20 69 34 20 28 36 40
internal_value=1.72004e-06 2.22639e-05 -3.40658e-06 1.07868e-05 -1.08019e-05 0.00098062 -3.48573e-05 -0.000429796 -0.000687271 -0.00118129 0.000970559 0.000839413
internal_weight=2707 2588 2524 2489 2439 50 2376 119 85 48 64 63
internal_count=2707 2588 2524 2489 2439 50 2376 119 85 48 64 63
is_linear=0
shrinkage=0.168553


Tree=9
num_leaves=15
num_cat=0
split_feature=10 1 2 10 8 7 2 2 11 8 7 7 4 11
split_gain=0.000628804 0.00161583 0.000840813 0.00118063 0.00166988 0.00137845 0.000634996 0.000847971 0.000726892 0.00039698 0.000329694 0.000512507 9.36132e-05 7.4673e-05
threshold=8.5279981166955068 14.716890594681043 14.669500173025236 8.149661160958404 14.475446587038318 0.015995398448572933 14.866856383438146 14.912955484959026 9.75961704710849 14.644048980206486 0.010175562900793441 0.018672213995383564 14.844057908271703 9.7149869373759277
decision_type=2 2 2 2 2 2 2 2 2 2 2 2 2 2
left_child=1 2 3 4 5 -1 8 -8 -2 13 -3 -12 -10 -5
right_child=6 10 -4 9 -6 -7 7 -9 12 -11 11 -13 -14 -15
leaf_value=-1.1650903208971113e-05 0.00051680302348980594 0.0013214755456907137 -0.00078548880105935208 0.00051723840401407962 -0.001128590955228264 0.00088829496747326305 -0.0014646414408005153 -7.603710649941953e-05 -0.00017966016288840285 7.8398411447667648e-05 -0.00010100427346298683 0.0010021451155345208 -0.00072915617847161629 0.0011661699403078245
leaf_weight=2343 32 22 34 21 33 45 23 24 20 23 22 20 20 25
leaf_count=2343 32 22 34 21 33 45 23 24 20 23 22 20 20 25
internal_value=1.72011e-06 1.9421e-05 -2.46512e-06 9.573e-06 -1.05837e-05 6.88787e-06 -0.000370057 -0.000822918 -4.3891e-05 0.000675699 0.000827951 0.000468637 -0.000499809 0.000941069
internal_weight=2707 2588 2524 2490 2421 2388 119 47 72 69 64 42 40 46
internal_count=2707 2588 2524 2490 2421 2388 119 47 72 69 64 42 40 46
is_linear=0
shrinkage=0.168553


Tree=10
num_leaves=24
num_cat=0
split_feature=5 5 10 0 1 12 11 15 10 7 11 15 10 7 7 5 7 15 8 15 8 8 0
split_gain=0.000633973 0.000679463 0.001521 0.00100516 0.000993128 0.00183315 0.00169714 0.00137274 0.00113042 0.000968075 0.000787652 0.000952113 0.000788111 0.000683185 0.000676062 0.000659135 0.000605842 0.000600946 0.000566253 0.000522576 0.000505974 0.000435733 0.000141151
threshold=14.921925645021579 14.154479611326247 7.777291867727687 0.0044480996238771562 14.463398797907949 5.1250000000000009 9.6955527414547156 2.5000000000000004 8.3134943277090514 0.0064004601572120361 9.6566594735806479 3.5000000000000004 7.6255534379422256 0.007554145435466229 0.0054919563881355776 14.471734350774566 0.0092726466852410209 2.5000000000000004 14.475446587038318 4.5000000000000009 14.242517573265152 13.792183826131792 0.0089441860578860517
decision_type=2 2 2 2 2 2 2 2 2 2 2 2 2 2 2 2 2 2 2 2 2 2 2
left_child=1 2 10 4 6 8 20 -8 -6 14 12 21 19 -4 -5 22 -13 -17 -7 -1 -3 -12 -11
right_child=-2 3 13 9 5 18 7 -9 -10 15 11 16 -14 -15 -16 17 -18 -19 -20 -21 -22 -23 -24
leaf_value=1.756554000551171e-05 -0.00085410549556241995 0.00036709966299743469 -0.00022795987275267942 -6.3100211293399459e-05 0.0009514746793783381 -0.00025989759516705597 0.0017307424969491363 0.00033822566209780751 4.145320437242189e-05 -0.0004228597475025884 -5.9333669257311898e-05 -0.00038433217044675153 -0.00090741991278886784 -0.0016184228018142192 0.0010531925297217681 0.00049169874160002135 0.00047092678804748169 -0.00042976931005657887 -0.0013626543354867708 -0.00018708996324785562 -0.00031703328379370158 0.00069471334759035875 -0.0011245027005778233
leaf_weight=1237 20 104 20 38 50 32 44 39 137 22 26 71 26 20 21 27 30 52 22 492 39 110 28
leaf_count=1237 20 104 20 38 50 32 44 39 137 22 26 71 26 20 21 27 30 52 22 492 39 110 28
internal_value=1.70224e-06 9.45946e-06 -3.86975e-05 0.000158166 0.000289906 4.96288e-05 0.000540206 0.0011264 0.000301096 -0.000168088 -1.69047e-05 0.000268645 -5.60539e-05 -0.00101477 0.000379011 -0.000422745 -0.000121029 -0.00010523 -0.000778047 -4.09793e-05 0.000176456 0.000552996 -0.000875111
internal_weight=2707 2687 2032 655 467 241 226 83 187 188 1992 237 1755 40 59 129 101 79 54 1729 143 136 50
internal_count=2707 2687 2032 655 467 241 226 83 187 188 1992 237 1755 40 59 129 101 79 54 1729 143 136 50
is_linear=0
shrinkage=0.168553


Tree=11
num_leaves=11
num_cat=0
split_feature=9 7 9 5 1 7 16 15 16 9
split_gain=0.000743938 0.000915513 0.000496867 0.000568263 0.000893991 0.00183394 0.00173165 0.000767279 0.00067184 0.000389157
threshold=0.03782568097893451 0.019779387682009403 0.025446514422851625 14.289568409104248 14.459730030438195 0.010982331033662257 2.5000000000000004 4.5000000000000009 10.500000000000002 0.018637141981345726
decision_type=2 2 2 2 2 2 2 2 2 2
left_child=1 2 3 7 5 -5 -6 9 -9 -1
right_child=-2 -3 -4 4 6 -7 -8 8 -10 -11
leaf_value=1.6251139158297455e-05 -0.00092621713786051371 0.00083770483705281052 -0.00075998099015542157 0.00017169216383807303 0.0011122743766557926 0.0017664499739132138 -8.7644901250422575e-05 -0.00010742844682862387 -0.00057033535075838191 0.00047130499073315104
leaf_weight=1514 20 33 20 78 34 24 308 521 104 51
leaf_count=1514 20 33 20 78 34 24 308 521 104 51
internal_value=8.46408e-07 9.25025e-06 -2.40047e-06 4.59052e-06 0.000177503 0.00060436 4.40933e-05 -3.07365e-05 -0.000187927 3.23697e-05
internal_weight=2707 2687 2654 2634 444 102 342 2190 625 1565
internal_count=2707 2687 2654 2634 444 102 342 2190 625 1565
is_linear=0
shrinkage=0.168553


Tree=12
num_leaves=24
num_cat=0
split_feature=9 16 11 10 5 11 2 0 13 9 0 14 11 10 14 9 9 8 5 0 13 10 2
split_gain=0.000553052 0.00061105 0.000877777 0.00199998 0.000859701 0.000957318 0.000723306 0.000755885 0.000743072 0.00058279 0.000575126 0.000788807 0.000901544 0.000510541 0.000500273 0.00165352 0.000767226 0.000711517 0.00109126 0.000485728 0.000455222 0.000321263 0.000177186
threshold=0.03782568097893451 3.5000000000000004 9.6274210902511914 7.5151511911291822 14.921925645021579 9.713546054824695 13.807982164647161 0.0038809896774836265 2.6250000000000004 0.012009857623578301 0.0074544152711357734 2.8000000000000003 9.6686783393176636 7.5690711755604516 2.2450000000000006 0.019360744810760912 0.012009857623578301 14.475446587038318 14.465489209054914 0.011650792941749978 2.9900000000000007 7.6170045592235391 13.535134841696417
decision_type=2 2 2 2 2 2 2 2 2 2 2 2 2 2 2 2 2 2 2 2 2 2 2
left_child=1 2 6 -4 5 -5 7 9 -9 -1 14 20 -13 -8 15 16 -3 18 -16 -14 21 -12 -22
right_child=-2 10 3 4 -6 -7 13 8 -10 -11 11 12 19 -15 17 -17 -18 -19 -20 -21 22 -23 -24
leaf_value=2.2183241325716186e-05 -0.00079809850965291396 -0.00010014704033000222 0.0018194159867169174 0.00011300961430234387 -0.00074303802151419603 0.00081504021804964307 -0.00012564966178791581 4.1346817324830747e-05 0.0011011109792950285 -0.00077670001861149848 -5.8937074490196531e-05 0.00017662078087290001 -0.001465978374338647 -0.001120744681492133 7.7311909785542915e-05 -0.0012955436035868462 0.00044376305821702458 -0.00057981302561804901 0.00098748669468013794 -0.00042210140493113255 4.8370107918398487e-05 0.00056344840517166068 -0.0005120208527659944
leaf_weight=220 20 778 20 206 20 72 36 41 31 25 59 23 30 22 789 27 77 39 35 28 21 34 54
leaf_count=220 20 778 20 206 20 72 36 41 31 25 59 23 30 22 789 27 77 39 35 28 21 34 54
internal_value=1.22652e-06 8.47306e-06 0.000144314 0.000348293 0.000224594 0.000304732 -3.06057e-05 7.16196e-05 0.000534909 -7.14059e-05 -3.89356e-05 -0.000276239 -0.000693635 -0.000555642 -4.45209e-06 -9.35104e-05 -4.91225e-05 8.65468e-05 0.000121013 -0.00102739 -6.23448e-05 0.000183388 -0.000360731
internal_weight=2707 2687 693 318 298 278 375 317 72 245 1994 249 81 58 1745 882 855 863 824 58 168 93 75
internal_count=2707 2687 693 318 298 278 375 317 72 245 1994 249 81 58 1745 882 855 863 824 58 168 93 75
is_linear=0
shrinkage=0.168553


Tree=13
num_leaves=22
num_cat=0
split_feature=6 2 7 4 16 10 7 7 16 9 10 16 9 15 16 15 12 12 7 7 4
split_gain=0.000570203 0.000841621 0.000587207 0.000537104 0.000935691 0.00105323 0.00143691 0.00130923 0.000953273 0.000706917 0.00147285 0.00150479 0.000647701 0.000420755 0.00053837 0.000407567 0.000383908 0.000937627 0.000429096 0.000280015 0.000212645
threshold=14.867523766431928 14.919606664135367 0.011048955451018973 14.335195704922045 1.5000000000000002 8.1052907654718265 0.0096128314165485427 0.010982331033662257 7.5000000000000009 0.018637141981345726 7.3896102029897408 3.5000000000000004 0.012044181679949946 4.5000000000000009 10.500000000000002 1.5000000000000002 4.6250000000000009 4.3750000000000009 0.0066322246569952845 0.0020253720539027127 13.93017753355954
decision_type=2 2 2 2 2 2 2 2 2 2 2 2 2 2 2 2 2 2 2 2 2
left_child=3 2 -2 9 -5 7 8 12 -7 13 -11 -12 -6 16 19 -8 17 -1 -18 -15 -16
right_child=1 -3 -4 4 5 6 15 -9 -10 10 11 -13 -14 14 20 -17 18 -19 -20 -21 -22
leaf_value=-2.9293080522929398e-05 -0.00014971874599183614 0.00035054162316657027 -0.0013368051267133466 0.0010764040107325821 0.00054731057594958139 -0.00010223767638601353 -0.00099661452294405291 0.0014608933710893463 0.0006607620809304434 0.0014487824911680581 -0.00096405742002596262 0.00062977225462917388 -0.00055742359423093641 0.00047652981288269492 -0.00033213629342224231 -0.00027837689412056859 0.00015597772033940226 -0.00077344995680129092 -0.00010038915706816142 -0.00010956046698241116 -0.00091189066561927806
leaf_weight=597 22 22 25 27 33 96 29 29 84 24 24 37 21 20 79 87 627 48 259 493 24
leaf_count=597 22 22 25 27 33 96 29 29 84 24 24 37 21 20 79 87 627 48 259 493 24
internal_value=5.31763e-07 -0.000462951 -0.000841714 1.34111e-05 0.000190653 0.000115926 -3.52606e-05 0.000630213 0.000260898 -1.9126e-05 0.000445404 -1.94041e-05 0.000107636 -3.83975e-05 -0.000155502 -0.000487839 9.00951e-06 -8.9549e-05 8.08785e-05 -8.28235e-05 -0.00049911
internal_weight=2707 69 47 2638 406 379 296 83 180 2232 85 61 54 2147 616 116 1531 645 886 513 103
internal_count=2707 69 47 2638 406 379 296 83 180 2232 85 61 54 2147 616 116 1531 645 886 513 103
is_linear=0
shrinkage=0.168553


Tree=14
num_leaves=22
num_cat=0
split_feature=6 15 16 11 0 3 12 9 0 12 9 5 3 11 9 10 5 0 10 11 12
split_gain=0.000417942 0.000729167 0.000436834 0.00127597 0.000928218 0.000500112 0.00276502 0.00117871 0.000477817 0.000654294 0.000390287 0.000357462 0.000748926 0.0012594 0.00109956 0.000708719 0.000447485 0.000315935 0.000240924 0.000179755 6.99501e-05
threshold=14.867523766431928 3.5000000000000004 3.5000000000000004 9.713546054824695 -0.010856747399471621 13.624955013254473 4.8750000000000009 0.016482767372305234 0.0088048918682703831 5.1250000000000009 0.014888843853276839 14.154479611326247 14.468355899780379 9.6955527414547156 0.019360744810760912 7.777291867727687 13.9461000314 0.013764477892709516 7.7663681621807479 9.732770409286875 4.6250000000000009
decision_type=2 2 2 2 2 2 2 2 2 2 2 2 2 2 2 2 2 2 2 2 2
left_child=2 19 3 4 -1 6 -6 -7 11 10 20 15 13 -13 -14 16 -4 18 -11 -2 -10
right_child=1 -3 8 -5 5 7 -8 -9 9 17 -12 12 14 -15 -16 -17 -18 -19 -20 -21 -22
leaf_value=0.0010452966724305843 -0.0011416919200980299 0.00026261527260568564 -4.5379310419751448e-05 0.0010041070727319515 0.0018559156639784838 1.9611854022188528e-05 -4.5716226281908922e-05 -0.00093512356184270002 -0.00031194633576465974 -0.00038437085021856871 0.00054385791598091798 0.00010545788067106857 0.00010272947990071914 0.001056405831845623 -0.00085129413222839506 -0.00075587257379885694 0.00036221095455290809 -9.5985291434323177e-05 -0.0010921718584176413 -0.00035999343125442997 2.5271435937797202e-05
leaf_weight=22 20 27 1282 40 22 406 122 36 39 34 26 143 177 51 38 34 77 29 32 22 28
leaf_count=22 20 27 1282 40 22 406 122 36 39 34 26 143 177 51 38 34 77 29 32 22 28
internal_value=4.78146e-07 -0.000396325 1.15061e-05 0.000131225 6.69958e-05 2.2753e-05 0.000290732 -6.64807e-05 -2.76657e-05 -0.000280173 3.90884e-05 -6.92166e-07 0.000136986 0.00037336 -7.93606e-05 -4.14383e-05 -2.11776e-05 -0.000580971 -0.00077447 -0.000805368 -0.000177704
internal_weight=2707 69 2638 648 608 586 144 442 1990 188 93 1802 409 194 215 1393 1359 95 66 42 67
internal_count=2707 69 2638 648 608 586 144 442 1990 188 93 1802 409 194 215 1393 1359 95 66 42 67
is_linear=0
shrinkage=0.168553


Tree=15
num_leaves=20
num_cat=0
split_feature=10 7 10 0 16 11 10 7 13 15 5 10 1 16 7 11 8 7 2
split_gain=0.000321406 0.00172591 0.00073548 0.00048715 0.000655093 0.000403754 0.00146454 0.000587308 0.000357623 0.000356755 0.000294811 0.000752831 0.000534632 0.000743983 0.000529033 0.000414384 0.000411409 0.000279054 0.000275326
threshold=7.3163255601106405 0.011048955451018973 7.3227613817240949 0.015527747421584694 3.5000000000000004 9.5635924577533107 7.1862767553264426 0.0073036331078617676 3.1050000000000004 3.5000000000000004 14.154479611326247 7.777291867727687 14.226626282650015 10.500000000000002 0.007554145435466229 9.6674486631323742 13.99385756157883 0.0021326371205426888 13.406413792797006
decision_type=2 2 2 2 2 2 2 2 2 2 2 2 2 2 2 2 2 2 2
left_child=1 5 -2 10 -5 7 18 8 17 -10 11 16 15 -14 -13 -12 -4 -1 -7
right_child=2 -3 3 4 -6 6 -8 -9 9 -11 12 14 13 -15 -16 -17 -18 -19 -20
leaf_value=0.00032290410657953182 -0.00087357518247624009 0.0014398321534931243 -3.9054294368048508e-05 -0.0011582027210066197 7.7381869587725663e-06 0.00019555935630036442 0.0014497327606831578 -0.00077892129043765094 0.00063608068549077549 -0.00014186509877808811 0.00018422080450649771 -6.2662120351244274e-05 0.00012799415429831941 -0.00036683833245742414 -0.0012484670691360888 0.00093991075636442852 0.00030519943570936478 -0.00025946565943087856 -0.00054418168923839761
leaf_weight=26 24 23 1537 20 31 29 20 25 39 25 59 20 454 102 20 30 101 101 21
leaf_count=26 24 23 1537 20 31 29 20 25 39 25 59 20 454 102 20 30 101 101 21
internal_value=4.9467e-07 0.000161054 -2.04382e-05 -1.02119e-05 -0.000504312 3.79933e-05 0.000377173 -7.70979e-05 2.99887e-05 0.000342138 1.55021e-06 -3.56756e-05 9.8027e-05 3.50117e-05 -0.00072078 0.000471325 -1.70544e-05 -0.000133248 -0.000133379
internal_weight=2707 309 2398 2374 51 286 70 216 191 64 2323 1678 645 556 40 89 1638 127 50
internal_count=2707 309 2398 2374 51 286 70 216 191 64 2323 1678 645 556 40 89 1638 127 50
is_linear=0
shrinkage=0.168553


Tree=16
num_leaves=11
num_cat=0
split_feature=5 4 4 16 11 0 0 12 16 15
split_gain=0.000304708 0.000353263 0.000830162 0.000348548 0.000779922 0.000667949 0.000407299 0.00050267 0.000261428 0.00017658
threshold=14.914122346632135 14.879012939457489 14.864056116728873 3.5000000000000004 9.713546054824695 -0.010856747399471621 0.0088048918682703831 5.6250000000000009 11.500000000000002 3.5000000000000004
decision_type=2 2 2 2 2 2 2 2 2 2
left_child=1 2 3 4 5 -1 8 -8 -5 -6
right_child=-2 -3 -4 6 9 -7 7 -9 -10 -11
leaf_value=0.00089462683868188158 -0.00053950213981309152 0.00055135100342671806 -0.00096005465562216941 -2.4441971416249803e-05 0.0011017500749329642 2.7092946345000333e-05 -3.4986978555864161e-05 -0.00059553484014142918 0.00017799195938361336 0.00032262411686305198
leaf_weight=22 25 29 21 1597 21 586 114 72 200 20
leaf_count=22 25 29 21 1597 21 586 114 72 200 20
internal_value=4.46461e-07 6.35968e-06 -4.83977e-07 8.74032e-06 0.000115534 6.46915e-05 -2.63743e-05 -0.000260813 -1.5188e-06 0.000790006
internal_weight=2707 2682 2653 2632 649 608 1983 186 1797 41
internal_count=2707 2682 2653 2632 649 608 1983 186 1797 41
is_linear=0
shrinkage=0.168553


Tree=17
num_leaves=22
num_cat=0
split_feature=3 2 9 10 7 8 7 3 14 4 7 15 14 10 8 2 3 9 7 13 7
split_gain=0.000283744 0.00102512 0.000278032 0.00138196 0.00064085 0.000947693 0.000612826 0.000502603 0.000461106 0.000494201 0.000324566 0.000403169 0.000527781 0.000289056 0.000214736 0.000372674 0.000282009 0.000343331 0.000207465 0.000183627 0.00012759
threshold=14.885894810480274 14.919606664135367 0.0094167616292108475 7.3129236764038161 0.0073743870419275635 13.696852111478515 0.0097926914615598173 14.85913852279625 0.82000000000000017 14.620199013251037 0.0021326371205426888 1.5000000000000002 2.7000000000000006 7.3514566006982447 13.464173663837396 13.523150671650429 13.412791395814574 0.0042291986202343699 0.010465815188052873 3.5350000000000006 0.0049988152711424073
decision_type=2 2 2 2 2 2 2 2 2 2 2 2 2 2 2 2 2 2 2 2 2
left_child=2 -2 10 6 8 13 -4 -7 20 -10 11 -1 19 -6 16 -16 17 -12 -17 -13 -5
right_child=1 -3 3 4 5 7 -8 -9 9 -11 14 12 -14 -15 15 18 -18 -19 -20 -21 -22
leaf_value=-0.00027650460517440251 -0.0010495820359043275 0.00042834686109366813 0.00033258635535990562 -0.00050392141983829136 -0.00022743670191992778 -4.6193616579581469e-05 0.001515715210314691 0.00070853221904068956 0.00022812909641059995 0.00097298775168380681 -0.00039237050644049584 0.00025375560354725177 0.00087038191019664943 -0.0011239519076198655 0.00049708655566612194 -3.9321685477600983e-05 -0.00064106609557883687 0.00026163736623055809 -0.00046500489492866723 -0.00028843769793105182 1.1088475792866383e-05
leaf_weight=34 25 21 31 21 20 503 21 22 231 25 44 56 34 25 32 1409 35 39 29 21 29
leaf_count=34 25 21 31 21 20 503 21 22 231 25 44 56 34 25 32 1409 35 39 29 21 29
internal_value=6.21425e-07 -0.000395688 8.12059e-06 8.2368e-05 3.01262e-05 -7.54482e-05 0.000891366 -8.92462e-06 0.000225169 0.00031609 -3.17288e-05 0.000205935 0.000358832 -0.000781484 -5.39533e-05 -3.59572e-05 -0.000268619 -8.70251e-05 -4.93091e-05 9.79855e-05 -0.000227814
internal_weight=2707 46 2661 928 876 570 52 525 306 256 1733 145 111 45 1588 1470 118 83 1438 77 50
internal_count=2707 46 2661 928 876 570 52 525 306 256 1733 145 111 45 1588 1470 118 83 1438 77 50
is_linear=0
shrinkage=0.168553


Tree=18
num_leaves=15
num_cat=0
split_feature=1 7 16 0 14 9 9 0 0 16 7 7 7 10
split_gain=0.000251203 0.000269808 0.000217526 0.000690641 0.000508383 0.000305514 0.000394496 0.000265695 0.000396524 0.000264555 0.00226921 0.000721887 0.000253354 0.000124943
threshold=14.899009151561847 0.025757552929177474 3.5000000000000004 0.0093868032593800183 1.7600000000000002 0.023696354158359158 0.0059605727018397095 0.0088048918682703831 0.010015527139715987 4.5000000000000009 0.011805621424478285 0.012737103459832803 0.0077949472363561777 7.7663681621807479
decision_type=2 2 2 2 2 2 2 2 2 2 2 2 2 2
left_child=1 2 3 5 -5 6 -1 9 13 10 -4 -11 -10 -9
right_child=-2 -3 7 4 -6 -7 -8 8 12 11 -12 -13 -14 -15
leaf_value=-0.0001320947951768225 -0.00043918844812290009 0.0005432622224920019 -0.00038409467984982073 0.0010259978597464486 4.1512627124437699e-05 -0.00055559183013184578 0.00015567356927797412 -0.00026612575909855401 0.00017145497745719662 4.3431164984899316e-05 0.0012583954194824783 -0.00047185443767219261 -0.00026565360779692219 -0.00089335054423959664
leaf_weight=206 32 22 187 32 26 20 376 22 64 1518 23 77 80 22
leaf_count=206 32 22 187 32 26 20 376 22 64 1518 23 77 80 22
internal_value=7.93808e-07 6.77557e-06 1.42987e-06 8.49851e-05 0.000618967 2.94009e-05 5.35436e-05 -2.63514e-05 -0.000214666 -6.25064e-06 -0.000182082 1.73161e-05 -7.18639e-05 -0.000632709
internal_weight=2707 2675 2653 660 58 602 582 1993 188 1805 210 1595 144 44
internal_count=2707 2675 2653 660 58 602 582 1993 188 1805 210 1595 144 44
is_linear=0
shrinkage=0.168553


Tree=19
num_leaves=17
num_cat=0
split_feature=6 10 10 7 8 7 6 13 6 3 7 13 3 7 4 10
split_gain=0.000218333 0.000187443 0.000542279 0.000983085 0.000403215 0.00112165 0.000948381 0.00078717 0.000360043 0.000341092 0.000330593 0.000503802 0.000196183 0.000251885 0.00020668 3.65091e-05
threshold=13.400643891598795 7.1914029665483197 7.3129236764038161 0.011048955451018973 13.558848860486746 0.007470683917030963 13.617127727890395 2.9700000000000002 13.697102328261179 13.566407761759331 0.0073036331078617676 3.1050000000000004 13.412791395814574 0.0040774570662972373 13.403775552043575 7.1625137508910459
decision_type=2 2 2 2 2 2 2 2 2 2 2 2 2 2 2 2
left_child=-1 12 3 10 5 7 9 -4 -8 -6 11 -3 13 14 -2 -16
right_child=1 2 4 -5 6 -7 8 -9 -10 -11 -12 -13 -14 -15 15 -17
leaf_value=0.00048325213113198731 -0.00060324459155559364 -0.00017730062913649466 0.00075970116889917687 0.0012915714654062336 0.00022054002186084709 -0.0013410619328226294 -0.00066093893961476796 -0.00040809402665537204 -9.5415437263214918e-06 0.0011937851839201098 -0.00039711549139832082 0.00052073927194908889 -0.00060739176915303075 0.00031399107344018613 0.00012623176648033721 -0.00015975996975649617
leaf_weight=22 25 46 21 20 22 20 20 42 2264 20 24 69 23 27 21 21
leaf_count=22 25 46 21 20 22 20 20 42 2264 20 24 69 23 27 21 21
internal_value=6.10771e-07 -4.11221e-06 5.54169e-06 0.000302734 -1.45747e-05 -0.000370056 -1.20743e-06 4.78158e-06 -1.65094e-05 0.00075344 0.000125221 0.000245017 -0.000208806 -8.83376e-05 -0.000260167 -1.77319e-05
internal_weight=2707 2685 2568 159 2409 83 2326 63 2284 42 139 115 117 94 67 42
internal_count=2707 2685 2568 159 2409 83 2326 63 2284 42 139 115 117 94 67 42
is_linear=0
shrinkage=0.168553


Tree=20
num_leaves=25
num_cat=0
split_feature=9 16 9 0 5 8 15 9 1 15 16 16 2 6 6 3 4 5 9 1 0 5 13 9
split_gain=0.000225473 0.000215043 0.00055582 0.000455767 0.000407017 0.000348062 0.000350746 0.000338978 0.000987224 0.000533154 0.000235727 0.000205212 0.000457055 0.00108313 0.00099612 0.00062833 0.000272036 0.000609045 0.000809278 0.000670896 0.000406663 0.00017866 0.000141767 0.000117846
threshold=0.03782568097893451 3.5000000000000004 0.0059605727018397095 0.0085948648444116333 13.850394843241586 13.739105083934108 3.5000000000000004 0.0074125761727152507 13.992400637007369 1.0000000180025095e-35 1.5000000000000002 4.5000000000000009 14.395764217394408 14.864941805855402 13.888158970958544 13.742401941462708 14.732401089934376 14.465489209054914 0.022184437844985951 14.23059585495257 -1.0000000180025095e-35 13.780401246757892 3.0250000000000004 0.0044994963089369485
decision_type=2 2 2 2 2 2 2 2 2 2 2 2 2 2 2 2 2 2 2 2 2 2 2 2
left_child=1 2 5 7 -5 6 23 8 -4 -9 21 12 14 -14 15 -3 17 19 -19 -13 -18 -7 -12 -1
right_child=-2 11 3 4 -6 10 -8 9 -10 -11 22 16 13 -15 -16 -17 20 18 -20 -21 -22 -23 -24 -25
leaf_value=0.00067312990134566104 -0.00050971581395761647 0.00019751806981925673 8.7912320990299155e-05 0.0010536963635184426 0.00020023054243190663 -0.00039900668304661708 -0.00024975891444966051 0.00046448354406164244 0.0013211763795185519 -7.7298390872684769e-05 -0.00084613690915074865 3.78139851079987e-06 -0.0011602011462950607 0.00033296833550003113 0.00067133525476245051 -0.0005108491943206664 0.00012281196748821545 0.00043286394241258901 -0.00054945443358235763 -0.00043889455849672364 -0.00078542945867758303 6.6667260685548184e-05 -0.0002212286135486812 0.00010517017336984831
leaf_weight=23 20 54 79 26 39 35 33 60 20 256 24 1426 31 20 39 90 24 160 24 100 26 55 23 20
leaf_count=23 20 54 79 26 39 35 33 60 20 256 24 1426 31 20 39 90 24 160 24 100 26 55 23 20
internal_value=6.52471e-07 5.2834e-06 8.58714e-05 0.000185954 0.000586905 -0.000138741 0.000144996 0.000117625 0.000382658 3.04163e-05 -0.00029596 -2.28367e-05 -0.000169607 -0.00059407 -4.00643e-05 -0.000247027 -2.93506e-06 8.82799e-06 0.000294809 -2.63796e-05 -0.000374124 -0.00012422 -0.000585724 0.000443639
internal_weight=2707 2687 693 480 65 213 76 415 99 316 137 1994 234 51 183 144 1760 1710 184 1526 50 90 47 43
internal_count=2707 2687 693 480 65 213 76 415 99 316 137 1994 234 51 183 144 1760 1710 184 1526 50 90 47 43
is_linear=0
shrinkage=0.168553


Tree=21
num_leaves=21
num_cat=0
split_feature=11 3 11 9 2 5 10 12 0 10 5 9 11 11 9 9 1 10 1 1
split_gain=0.000242833 0.00115821 0.00160775 0.000650273 0.000599868 0.000560883 0.000480508 0.000460463 0.00037027 0.000640697 0.000714832 0.000316275 0.000668117 0.000642013 0.000496776 0.0004561 0.000251541 0.000290678 0.000205809 0.000202556
threshold=9.5662265185618605 13.722846722649283 9.5910208487692721 0.017298834235539819 13.78762522230536 13.730497035470227 7.1862767553264426 4.3750000000000009 0.010676734655553412 8.5047237361953911 14.636388176239466 0.0099182205045578471 9.5444140166574254 9.5527240565863725 0.0082754652314384353 0.0054092613057987226 13.740247928158167 7.4734184483246038 13.734842508011862 13.67911382798526
decision_type=2 2 2 2 2 2 2 2 2 2 2 2 2 2 2 2 2 2 2 2
left_child=3 2 6 4 11 7 -2 -3 16 10 -10 13 -13 15 -15 -1 18 -18 -7 -14
right_child=1 5 -4 -5 -6 8 -8 -9 9 -11 -12 12 19 14 -16 -17 17 -19 -20 -21
leaf_value=0.00038679325786613412 -0.0002432115086915529 -2.6255044510301568e-05 0.0017195800714585045 -0.00093041857725365711 -0.00079896955052378006 7.1293356313289024e-05 0.00058266156892860382 -0.0010841525669290967 -0.00027751343449345474 -0.0010353816785357989 0.00072155914510024701 -0.00039716926198105334 0.00077056914205150232 -0.00014399210083715006 -0.00077232834317328251 -0.00011316165068578793 -0.00020277533442146053 4.1397136887673821e-05 0.00064019721013740109 0.00016574650130630155
leaf_weight=102 37 23 22 21 25 41 35 20 99 20 21 28 38 202 40 98 147 1628 30 30
leaf_count=102 37 23 22 21 25 41 35 20 99 20 21 28 38 202 40 98 147 1628 30 30
internal_value=5.42158e-07 2.7058e-05 0.000591888 -9.52871e-05 -5.71591e-05 -3.11561e-07 0.000168253 -0.000573531 1.33174e-05 -0.000246679 -8.32344e-05 -1.64753e-05 0.000253956 -7.71866e-05 -0.000259823 0.000144495 3.35869e-05 2.07112e-05 0.000335237 0.000530253
internal_weight=2707 2123 94 584 563 2029 72 43 1986 140 120 538 96 442 242 200 1846 1775 71 68
internal_count=2707 2123 94 584 563 2029 72 43 1986 140 120 538 96 442 242 200 1846 1775 71 68
is_linear=0
shrinkage=0.168553


Tree=22
num_leaves=16
num_cat=0
split_feature=7 11 10 9 9 1 0 7 9 7 11 10 9 7 11
split_gain=0.000179606 0.000257071 0.000825581 0.00183844 0.000524241 0.000493778 0.000413691 0.000694942 0.000645856 0.000634272 0.00211967 0.000450259 0.000240838 0.000516624 0.000426713
threshold=0.0010333502122798386 9.5668742854382227 7.3187812100482512 0.0043060710563830708 0.017298834235539819 13.78762522230536 -0.0010035133878156797 0.014848597791024307 0.0084167735014886707 0.016386725668118735 9.7266728168896268 7.4672539167046645 0.010138522913825639 0.010115441704275 9.5420754357130786
decision_type=2 2 2 2 2 2 2 2 2 2 2 2 2 2 2
left_child=-1 4 3 -3 5 12 7 8 -4 11 -11 -8 14 -14 -2
right_child=1 2 6 -5 -6 -7 9 -9 -10 10 -12 -13 13 -15 -16
leaf_value=0.00040117254840693416 0.00031816312408687245 -0.00018549846471796008 0.00022709737414179182 0.0017608400882077886 -0.00080999020610806563 -0.00073951035996044391 -0.00030953991528379039 0.00080351165126797284 -0.00011775837332729412 -0.0014644041514743124 0.0005817351581100602 1.0410839297746117e-05 0.00047654702483856834 -0.00032361699105721246 -0.00014768663394333298
leaf_weight=27 61 30 338 20 24 25 135 35 277 29 22 1205 63 31 385
leaf_count=27 61 30 338 20 24 25 135 35 277 29 22 1205 63 31 385
internal_value=1.92247e-07 -4.48351e-06 2.32475e-05 0.000671479 -0.000102425 -6.6332e-05 5.95242e-06 0.000116528 7.19914e-05 -4.59012e-05 -0.000604996 -2.27034e-05 -2.9427e-05 0.000209721 -8.14394e-05
internal_weight=2707 2680 2091 50 589 565 2041 650 615 1391 51 1340 540 94 446
internal_count=2707 2680 2091 50 589 565 2041 650 615 1391 51 1340 540 94 446
is_linear=0
shrinkage=0.168553


Tree=23
num_leaves=7
num_cat=0
split_feature=5 4 4 3 0 4
split_gain=0.000182217 0.000464798 0.000620951 0.000583105 0.000416587 0.000303952
threshold=14.899009151561847 14.879012939457489 14.85596391685673 14.841372910203591 0.019984167974029358 14.732401089934376
decision_type=2 2 2 2 2 2
left_child=1 2 3 4 5 -1
right_child=-2 -3 -4 -5 -6 -7
leaf_value=1.0107816457093032e-06 -0.00037443833447382103 0.00068400281843957378 -0.00064977962889209429 0.00074262670062027862 0.00066626924009343769 -0.00042127343680764149
leaf_weight=2521 32 24 37 26 22 45
leaf_count=2521 32 24 37 26 22 45
internal_value=2.88896e-07 5.38569e-06 -1.863e-06 8.36645e-06 -2.38856e-07 -7.08752e-06
internal_weight=2707 2675 2651 2614 2588 2566
internal_count=2707 2675 2651 2614 2588 2566
is_linear=0
shrinkage=0.168553


Tree=24
num_leaves=11
num_cat=0
split_feature=6 15 6 15 1 0 0 12 10 1
split_gain=0.00017775 0.00049248 0.000328684 0.000479842 0.000259182 0.000274363 0.000190003 0.000437924 0.000310877 5.94539e-05
threshold=14.867523766431928 3.5000000000000004 14.839976190751456 2.5000000000000004 14.817238028275639 0.019984167974029358 0.0074544152711357734 5.1250000000000009 7.8472839072757417 14.89443008326524
decision_type=2 2 2 2 2 2 2 2 2 2
left_child=2 9 4 -4 5 6 8 -8 -1 -2
right_child=1 -3 3 -5 -6 -7 7 -9 -10 -11
leaf_value=-1.3321399220055319e-05 -0.00028565323080602975 0.00027638284091425282 0.00093411729910510173 -5.843355294469459e-05 -0.00052672887233305417 0.00055593782738501982 8.9801393280069185e-05 -0.00031410105291333637 0.00015045636786519966 -0.00078361280095492949
leaf_weight=1850 20 27 22 28 22 21 140 159 396 22
leaf_count=1850 20 27 22 28 22 21 140 159 396 22
internal_value=4.16378e-07 -0.000258354 7.61172e-06 0.00041775 -9.92139e-07 4.39229e-06 -1.09294e-06 -0.00012632 1.57783e-05 -0.000596376
internal_weight=2707 69 2638 50 2588 2566 2545 299 2246 42
internal_count=2707 69 2638 50 2588 2566 2545 299 2246 42
is_linear=0
shrinkage=0.168553


Tree=25
num_leaves=8
num_cat=0
split_feature=2 3 3 1 11 11 11
split_gain=0.000166179 0.000807553 0.000284529 0.000196129 0.000258854 0.00063356 0.000464135
threshold=14.919606664135367 14.885894810480274 14.85913852279625 14.847626601512658 9.7316370149214091 9.7769126509435758 9.7232267955186611
decision_type=2 2 2 2 2 2 2
left_child=1 2 3 4 6 -6 -1
right_child=-2 -3 -4 -5 5 -7 -8
leaf_value=7.046581069462537e-06 0.00042141956211421794 -0.00088276309086740752 0.00044450413206149442 -0.00046737465931658435 0.0009216641881608055 -0.0002021808293382818 -0.00046213752432245649
leaf_weight=2495 22 25 37 21 24 26 57
leaf_count=2495 22 25 37 21 24 26 57
internal_value=3.49417e-07 -3.7694e-06 5.9157e-06 -9.8936e-07 3.54124e-06 0.000367468 -4.19394e-06
internal_weight=2707 2685 2660 2623 2602 50 2552
internal_count=2707 2685 2660 2623 2602 50 2552
is_linear=0
shrinkage=0.168553


Tree=26
num_leaves=38
num_cat=0
split_feature=9 9 11 7 10 11 7 7 13 13 8 10 9 1 9 13 4 4 13 9 15 13 15 13 0 5 10 7 1 8 17 11 11 7 9 13 15
split_gain=0.000167839 0.000347872 0.000409161 0.000361334 0.000293693 0.000365421 0.000291809 0.000741674 0.000469326 0.000575868 0.000413531 0.000966207 0.000490739 0.000389062 0.000226232 0.000551272 0.000350649 0.000357544 0.000371214 0.000328762 0.000246895 0.000240318 0.000350081 0.000232646 0.000219954 0.000353751 0.000323863 0.000215051 0.000212953 0.000185811 0.000175753 0.000161929 0.000146379 0.000114571 9.60538e-05 6.29186e-05 6.099e-05
threshold=0.0065685265440489577 0.0076153213993845519 9.6657695576190736 0.003425955184203354 7.5517936177771885 9.5642181113964515 0.0040036752283730851 0.0059988253549173544 3.3000000000000003 1.7950000000000002 13.620414432712954 7.3968040184758541 0.013820471928712734 13.874250941842186 0.0045391134025719445 1.6700000000000002 13.757351503371618 13.726132597346973 1.4800000000000002 0.0043404424157978943 1.0000000180025095e-35 1.7300000000000002 4.5000000000000009 3.3000000000000003 -0.00094966790182660066 13.524489360535787 7.5651586945201563 0.0049047500858248032 13.790705307687608 13.753623402937292 1.5000000000000002 9.6113120652107256 9.5598522207071905 0.0053336742634818119 0.010301553622297179 2.3400000000000003 3.5000000000000004
decision_type=2 2 2 2 2 2 2 2 2 2 2 2 2 2 2 2 2 2 2 2 2 2 2 2 2 2 2 2 2 2 2 2 2 2 2 2 2
left_child=14 2 3 -2 5 -5 13 8 9 -8 12 -12 -9 30 15 36 17 23 -19 24 31 22 -22 32 25 -17 -26 -10 -23 -20 -3 -18 -16 -6 -32 -15 -1
right_child=1 6 -4 4 33 -7 7 10 27 -11 11 -13 -14 35 16 19 20 18 29 -21 21 28 -24 -25 26 -27 -28 -29 -30 -31 34 -33 -34 -35 -36 -37 -38
leaf_value=-0.00055055704550827241 0.00055762069620034292 0.00032669699394863284 0.00070512027269038064 -0.0001780093795490866 -0.00050338995594679397 0.0004017973530608198 2.3908931308809296e-06 -6.9019134029655211e-05 -0.00040355119775117886 0.0006522709513966206 0.0010456823990568436 -2.9821048369247174e-05 -0.00085740590247631221 -0.00076065990824676361 -0.00013301731916355399 -0.00023633068900196752 -0.00082389598415368265 -0.00019744719077320613 0.00058782486470632936 0.00057847908988651502 0.00029442798900404207 -0.00071700685791934739 -0.00033365145062883478 0.00026704303085863277 7.6136741661836238e-05 0.00045216387703352182 -0.00041565116137162289 0.00016091513323883311 -0.00018846325530789829 1.4900964746190607e-05 -0.00026759521309161816 -0.00021907408500571678 -0.00059599634675530926 -6.4651285049808141e-05 0.00012398707409938867 -0.00032251471151146263 -0.00017495873462894038
leaf_weight=34 39 27 36 48 26 73 58 61 28 113 20 900 32 24 69 26 25 34 59 36 63 21 36 25 174 73 44 43 208 22 51 30 25 42 23 32 27
leaf_count=34 39 27 36 48 26 73 58 61 28 113 20 900 32 24 69 26 25 34 59 36 63 21 36 25 174 73 44 43 208 22 51 30 25 42 23 32 27
internal_value=2.2903e-07 3.31307e-05 0.000209042 0.000118803 1.75491e-05 0.000173378 -2.82861e-07 2.70421e-05 0.000289379 0.000437559 -3.65746e-05 -1.57612e-06 -0.000366893 -0.000213701 -5.31427e-05 4.29402e-05 -0.000117508 4.45444e-05 0.000251884 0.0001249 -0.000215975 -0.000156083 6.13103e-05 -0.000157421 6.61341e-05 0.000268725 -2.92141e-05 -7.18074e-05 -0.000249575 0.000441278 -1.06086e-05 -0.000534885 -0.000277448 -0.000253067 -0.000145398 -0.000552237 -0.000407556
internal_weight=2707 1676 264 228 189 121 1412 1255 242 171 1013 920 93 157 1031 414 617 234 115 353 383 328 99 119 317 99 218 71 229 81 101 55 94 68 74 56 61
internal_count=2707 1676 264 228 189 121 1412 1255 242 171 1013 920 93 157 1031 414 617 234 115 353 383 328 99 119 317 99 218 71 229 81 101 55 94 68 74 56 61
is_linear=0
shrinkage=0.168553


Tree=27
num_leaves=10
num_cat=0
split_feature=9 7 9 7 16 11 0 2 10
split_gain=0.000153826 0.00031078 0.000160084 0.000343559 0.000965298 0.00134594 0.000612909 0.000504041 0.000395357
threshold=0.03782568097893451 0.019779387682009403 0.025446514422851625 0.012400401127045645 7.5000000000000009 9.5788786806768886 -1.0000000180025095e-35 14.89443008326524 8.1338743019798709
decision_type=2 2 2 2 2 2 2 2 2
left_child=1 2 3 7 5 -5 -6 8 -1
right_child=-2 -3 -4 4 6 -7 -8 -9 -10
leaf_value=-2.6884924311644851e-05 -0.00042185917885744287 0.00048620762079994834 -0.00043327329971681595 -0.00060881852660802001 0.00036635515680580625 0.00082615652123178124 -0.00062093960980021058 -0.0007630128935554295 0.00023238937890309597
leaf_weight=2264 20 33 20 20 25 85 43 21 176
leaf_count=2264 20 33 20 20 25 85 43 21 176
internal_value=-2.88749e-07 3.51854e-06 -3.26208e-06 7.0458e-07 0.000227288 0.000539162 -0.000257367 -1.55867e-05 -7.78947e-06
internal_weight=2707 2687 2654 2634 173 105 68 2461 2440
internal_count=2707 2687 2654 2634 173 105 68 2461 2440
is_linear=0
shrinkage=0.168553


Tree=28
num_leaves=11
num_cat=0
split_feature=11 11 0 4 8 8 1 3 1 5
split_gain=0.000164653 0.000198835 0.000585011 0.000293765 0.000846701 0.000534801 0.00076086 0.00066341 0.000204251 9.10565e-05
threshold=9.75961704710849 9.732770409286875 -0.0010741167476071565 14.732401089934376 14.870763198159452 14.689008723682621 14.669500173025236 14.64493497610094 14.866856383438146 14.844057908271703
decision_type=2 2 2 2 2 2 2 2 2 2
left_child=1 3 -3 5 -5 6 7 -1 -4 -2
right_child=9 2 8 4 -6 -7 -8 -9 -10 -11
leaf_value=-9.6140629411312525e-07 -4.4222717515439016e-05 -0.00029796796792821431 0.00092366414075348107 -0.0010347710165356902 0.00025134328110961026 0.00073287917818028485 -0.00080253601593819658 0.00088277365166709333 0.00018885317362441587 -0.00054185162604535541
leaf_weight=2468 20 29 24 24 27 24 29 20 22 20
leaf_count=2468 20 29 24 24 27 24 29 20 22 20
internal_value=-5.03679e-07 4.83548e-06 0.000267627 -3.19523e-06 -0.00038728 5.15428e-06 -3.03182e-06 7.66677e-06 0.000619677 -0.000322542
internal_weight=2707 2667 75 2592 51 2541 2517 2488 46 40
internal_count=2707 2667 75 2592 51 2541 2517 2488 46 40
is_linear=0
shrinkage=0.168553


Tree=29
num_leaves=10
num_cat=0
split_feature=2 3 7 7 16 9 14 7 15
split_gain=0.000142055 0.000604977 0.000216012 0.000143361 0.000199732 0.000145507 0.000240358 0.000225366 0.000101518
threshold=14.919606664135367 14.885894810480274 0.021945369292211431 0.0018513654678745555 7.5000000000000009 0.0065685265440489577 4.2250000000000005 0.0059988253549173544 3.5000000000000004
decision_type=2 2 2 2 2 2 2 2 2
left_child=1 2 3 4 8 6 -5 -7 -1
right_child=-2 -3 -4 5 -6 7 -8 -9 -10
leaf_value=0.00018179675223358119 0.00038894109121567321 -0.00076497304554362276 0.0004303532511486755 -7.959482702598758e-05 -9.4014694539390747e-05 0.0001106381519097239 0.00031825715278428513 -2.3138069881989079e-05 0.00066335623225048245
leaf_weight=36 22 25 29 908 38 537 41 1051 20
leaf_count=36 22 25 29 908 38 537 41 1051 20
internal_value=-3.48901e-07 -4.17608e-06 4.20675e-06 -1.18558e-06 0.000198456 -8.92237e-06 -6.09963e-05 2.22615e-05 0.000389826
internal_weight=2707 2685 2660 2631 94 2537 949 1588 56
internal_count=2707 2685 2660 2631 94 2537 949 1588 56
is_linear=0
shrinkage=0.168553


Tree=30
num_leaves=27
num_cat=0
split_feature=13 13 13 13 1 4 11 13 7 10 14 15 11 2 10 10 4 3 10 15 10 15 15 6 1 6
split_gain=0.000129244 0.000228195 0.000607346 0.000242208 0.000568019 0.001006 0.000402861 0.000346865 0.000338558 0.000312587 0.000267979 0.000243009 0.000209259 0.00020773 0.000373438 0.000276292 0.000357923 0.000225477 0.000170837 0.000142048 0.000140351 0.000124305 7.93675e-05 3.73424e-05 3.4631e-05 3.04924e-05
threshold=1.4000000000000001 1.5450000000000002 1.5300000000000002 1.6300000000000001 14.226626282650015 13.821989400671262 9.6747973927710103 1.8550000000000002 0.0061036250707914913 8.0836186899941271 4.1250000000000009 3.5000000000000004 9.6401890953709124 13.74132551478216 7.5725981436431855 7.9695494209700604 14.289568409104248 14.349368837866759 7.5478576273587867 1.0000000180025095e-35 7.4979362970420587 4.5000000000000009 3.5000000000000004 13.760133639187506 13.746696098520232 13.832336000982673
decision_type=2 2 2 2 2 2 2 2 2 2 2 2 2 2 2 2 2 2 2 2 2 2 2 2 2 2
left_child=13 2 18 4 5 8 -6 11 -3 -8 12 19 -9 -1 20 16 22 -17 21 -5 -15 23 -16 -2 -13 -20
right_child=1 3 -4 7 6 -7 9 10 -10 -11 -12 24 -14 14 15 17 -18 -19 25 -21 -22 -23 -24 -25 -26 -27
leaf_value=0.00024647975442612988 0.00040440316068152387 -0.00038441297174847969 0.00082231609069076872 4.866501876870146e-05 -0.001031906210350348 0.0010216159537920076 0.00014050970854305475 -4.7848179445675895e-05 0.00017822788040146794 -0.00065237016619319646 -0.00046594256332195972 0.00015383336016748549 6.3932823649641963e-05 -0.00011588207547513555 0.00013089711875322865 -0.00066561748113551692 0.00072682497651959776 7.5404322010594349e-05 -0.0003307633993088485 0.00050326394754887204 -0.00065706391292603039 -0.00015338363096581168 -0.0002627151153633363 9.2936009119810016e-05 -7.1197599778142912e-05 -5.5004469330970772e-05
leaf_weight=32 35 72 31 27 25 20 29 1057 47 21 31 25 858 22 27 21 20 20 24 79 45 20 23 20 53 23
leaf_count=32 35 72 31 27 25 20 29 1057 47 21 31 25 858 22 27 21 20 20 24 79 45 20 23 20 53 23
internal_value=1.72499e-09 1.07766e-05 0.000207259 -2.39817e-06 -0.00017148 3.27491e-05 -0.000531304 1.48925e-05 -0.000163522 -0.00021765 -6.22013e-06 0.000233296 2.25113e-06 -0.000125592 -0.000196941 -3.15392e-06 0.000196702 -0.000331075 2.77137e-05 0.00039424 -0.000497739 0.000182038 -5.62061e-05 0.0003068 4.91852e-06 -0.000212531
internal_weight=2707 2497 153 2344 214 139 75 2130 119 50 1946 184 1915 210 178 111 70 41 122 106 67 75 50 55 78 47
internal_count=2707 2497 153 2344 214 139 75 2130 119 50 1946 184 1915 210 178 111 70 41 122 106 67 75 50 55 78 47
is_linear=0
shrinkage=0.168553


Tree=31
num_leaves=21
num_cat=0
split_feature=10 9 10 5 6 8 11 7 5 0 11 12 3 7 8 11 6 15 11 7
split_gain=0.000133569 0.000495704 0.000462828 0.000400013 0.000828826 0.000673419 0.00035675 0.000336593 0.000327824 0.000325491 0.000244902 0.000229036 0.00119938 0.000962357 0.000788571 0.00076656 0.000638537 0.000380068 0.000189459 0.000172342
threshold=7.5754513090059623 0.018637141981345726 7.5793748953941051 13.887365886797424 13.855592002464055 13.877179848262793 9.6206934871997323 0.010465815188052873 13.756291057587051 0.015527747421584694 9.7159433496325835 5.1250000000000009 14.468355899780379 0.014264932491407312 14.644048980206486 9.7203877037871198 14.459276849336094 4.5000000000000009 9.6274210902511914 0.0084294726028649267
decision_type=2 2 2 2 2 2 2 2 2 2 2 2 2 2 2 2 2 2 2 2
left_child=1 3 -2 4 7 6 -6 19 -9 11 -11 14 13 -13 16 -16 -4 -14 -3 -1
right_child=2 18 9 -5 5 -7 -8 8 -10 10 -12 12 17 -15 15 -17 -18 -19 -20 -21
leaf_value=-1.8427756657790252e-06 -0.00065352420647070929 0.00016066295224126425 -1.1221103961624104e-05 -0.00060073738206274229 0.00031720115375023534 -0.00010071381665283971 0.0011559233243596289 -0.00056760801221783443 4.7026193860984537e-05 -2.7592602646422927e-05 -0.00083123742582717471 -3.4682927682012145e-05 -0.00099661331729875339 0.00090690306456994892 -0.00074990204362257982 7.5807977520431084e-05 0.00085812536271597558 -9.575788583410988e-05 0.00090678475543349765 0.00022086650205618567
leaf_weight=1221 30 20 40 25 31 35 33 53 42 20 20 647 43 28 34 187 55 20 20 103
leaf_count=1221 30 20 40 25 31 35 33 53 42 20 20 647 43 28 34 187 55 20 20 103
internal_value=-5.50026e-08 3.14507e-05 -4.44016e-05 1.5415e-05 2.72766e-05 0.000488069 0.00079633 -6.25172e-06 -0.000305473 -2.51381e-05 -0.000472354 -6.25861e-06 -5.76622e-05 9.91685e-06 0.000112852 -6.31778e-05 0.000507405 -0.000735814 0.000586937 1.61311e-05
internal_weight=2707 1583 1124 1543 1518 99 64 1419 95 1094 40 1054 738 675 316 221 95 63 40 1324
internal_count=2707 1583 1124 1543 1518 99 64 1419 95 1094 40 1054 738 675 316 221 95 63 40 1324
is_linear=0
shrinkage=0.168553


Tree=32
num_leaves=10
num_cat=0
split_feature=9 7 9 7 7 15 11 3 5
split_gain=0.000149002 0.000227768 0.000150165 0.000634073 0.000361347 0.000771804 0.000228372 0.000993035 0.000665321
threshold=0.03782568097893451 0.019779387682009403 0.023119765012395356 0.012098786563343719 0.01552035309895416 3.5000000000000004 9.7232267955186611 14.772367085612098 14.465489209054914
decision_type=2 2 2 2 2 2 2 2 2
left_child=1 2 4 -4 6 -6 8 -8 -1
right_child=-2 -3 3 -5 5 -7 7 -9 -10
leaf_value=-1.4571144728986575e-05 -0.00041496351028820217 0.00041691633141337594 0.00034114054925368158 -0.00071956782475419599 0.0010772179774398039 -0.0002497686251916853 -0.0009871618959579906 3.2716094308114991e-05 0.000353841495268402
leaf_weight=2264 20 33 25 32 22 21 31 115 144
leaf_count=2264 20 33 25 32 22 21 31 115 144
internal_value=-5.52747e-08 3.69131e-06 -2.11309e-06 -0.000262719 4.02767e-06 0.000465304 -4.50908e-06 -0.000206043 8.04957e-06
internal_weight=2707 2687 2654 57 2597 43 2554 146 2408
internal_count=2707 2687 2654 57 2597 43 2554 146 2408
is_linear=0
shrinkage=0.168553


Tree=33
num_leaves=14
num_cat=0
split_feature=10 6 9 7 1 9 4 7 2 8 9 9 9
split_gain=0.000132088 0.000432213 0.000381362 0.000449434 0.000235275 0.00149487 0.000545898 0.00047799 0.000413324 0.000252624 0.000127735 0.000126781 0.000252479
threshold=8.5279981166955068 14.784590154189202 0.019360744810760912 0.011600514405051717 14.663522082262283 0.019540017243736038 14.620199013251037 0.015995398448572933 14.716890594681043 14.475446587038318 0.01912403583299099 0.01019850605578693 0.0081929062135625234
decision_type=2 2 2 2 2 2 2 2 2 2 2 2 2
left_child=1 4 3 11 6 8 7 9 -6 -1 -9 12 -2
right_child=2 -3 -4 -5 5 -7 -8 10 -10 -11 -12 -13 -14
leaf_value=-1.7645631310315254e-07 -0.00036169779274064631 0.00060174671636543855 -0.00076788411260642292 0.00059877797495887989 -0.00015057041760423528 -0.0013278694717512086 0.00074439791005749187 0.00079124820684899804 0.00073853245402470094 -0.00031780964011793208 0.00019624835674979206 -0.00043117504619864908 0.00038421533307802375
leaf_weight=2343 23 30 20 21 35 22 24 21 20 69 24 35 20
leaf_count=2343 23 30 20 21 35 22 24 21 20 69 24 35 20
internal_value=-8.88084e-08 8.01013e-06 -0.000170498 -2.21744e-05 2.12354e-08 -0.000281998 9.26587e-06 7.64485e-07 0.000202829 -9.83314e-06 0.000519956 -0.0002126 -1.07225e-05
internal_weight=2707 2588 119 99 2558 77 2481 2457 55 2412 45 78 43
internal_count=2707 2588 119 99 2558 77 2481 2457 55 2412 45 78 43
is_linear=0
shrinkage=0.168553


Tree=34
num_leaves=19
num_cat=0
split_feature=10 7 10 13 7 0 7 11 7 7 0 0 13 7 15 1 1 11
split_gain=0.000129975 0.00075552 0.000366815 0.00028613 0.000287141 0.000213236 0.000421178 0.00106939 0.000342711 0.000439158 0.00027009 0.000251118 0.000349363 0.000230586 0.000188527 0.000451901 0.000263939 0.000184232
threshold=7.3163255601106405 0.010247157339897508 7.3227613817240949 3.3550000000000004 0.0069476462053545433 -0.0010035133878156797 0.016386725668118735 9.7266728168896268 0.015052637028214492 0.0098677012720471569 -0.0024922140954268808 -0.00051936258615992148 3.0650000000000004 0.010737929057155357 2.5000000000000004 13.423947260874542 13.403775552043575 9.6523945262495534
decision_type=2 2 2 2 2 2 2 2 2 2 2 2 2 2 2 2 2 2
left_child=1 3 -2 4 14 8 11 -8 9 10 -4 12 -7 -11 15 -1 -16 -13
right_child=2 -3 5 -5 -6 6 7 -9 -10 13 -12 17 -14 -15 16 -17 -18 -19
leaf_value=-0.00010738564363475937 -0.0006157102470982402 0.00084787856858377613 2.7450300318955193e-05 0.00056256880852320081 -0.00049551039848630071 -0.00064211953018250448 -0.0010536863661515349 0.00037755430046357795 0.00056494305244947373 -0.00062692489567509589 0.00027386723675339484 -5.7538181472113992e-05 0.00017197943614999535 -0.00010009380460535438 0.00026473942884989418 0.00058902526364076348 -0.00025392562611752583 6.3436512422907837e-05
leaf_weight=59 24 30 451 20 30 37 32 22 33 30 172 910 21 83 35 42 93 583
leaf_count=59 24 30 451 20 30 37 32 22 33 30 172 910 21 83 35 42 93 583
internal_value=9.66278e-08 0.000102204 -1.32109e-05 1.0083e-05 -4.11001e-05 -5.98766e-06 -4.09419e-05 -0.000485493 6.67486e-05 4.11696e-05 9.69612e-05 -2.41253e-05 -0.000355508 -0.000258339 2.64732e-05 0.000194361 -0.00010783 -1.02327e-05
internal_weight=2707 309 2398 279 259 2374 1605 54 769 736 623 1551 58 113 229 101 128 1493
internal_count=2707 309 2398 279 259 2374 1605 54 769 736 623 1551 58 113 229 101 128 1493
is_linear=0
shrinkage=0.168553


Tree=35
num_leaves=25
num_cat=0
split_feature=11 11 10 10 0 7 7 11 0 16 2 6 0 15 0 15 7 7 10 7 6 7 7 13
split_gain=0.000130425 0.000334792 0.000740505 0.00177223 0.000234932 0.00022556 0.000253842 0.000249844 0.00018899 0.000359852 0.000171582 0.000175582 0.000168929 0.000144039 0.000130359 0.000101261 9.69822e-05 9.06856e-05 0.000362306 0.000308869 0.000202884 0.000201941 0.000162863 7.88435e-05
threshold=9.5527240565863725 9.5662265185618605 7.3187812100482512 7.1727123260385328 0.0041343739183448145 0.0075173623254691574 0.006015473027963617 9.5642181113964515 0.015527747421584694 4.5000000000000009 14.919606664135367 14.867523766431928 -0.0021265298447152854 4.5000000000000009 0.0064068576980629297 2.5000000000000004 0.011479967855386951 0.0036990905125775147 7.4037037690507219 0.0026905432656871143 13.537475542526193 0.0061679517573735567 0.0021793705929307864 2.7850000000000006
decision_type=2 2 2 2 2 2 2 2 2 2 2 2 2 2 2 2 2 2 2 2 2 2 2 2
left_child=4 5 3 -3 17 6 7 13 10 -10 11 -4 -7 -2 -6 -8 -14 19 20 22 23 -20 -1 -19
right_child=1 2 8 -5 14 12 15 -9 9 -11 -12 -13 16 -15 -16 -17 -18 18 21 -21 -22 -23 -24 -25
leaf_value=0.00021512867366808811 1.3168930868825141e-05 -0.00018655715888182275 5.7397829216365146e-06 0.0016332209787111125 0.00070576777074032773 -0.00077934103464284558 0.00049347879101484531 -0.0005513730846185 -0.00067358924764225213 0.00019027378159466347 0.00043934824899756101 -0.00033332465634419592 -1.3216353608796537e-08 -0.00032586662471081711 0.00010554189729677251 1.930892298905479e-05 -0.0004560086125917643 -0.00024257906400039072 -0.00011564935693953193 0.00053888872926723325 -0.00056844326091251356 0.00049398772205913751 -0.00035956831967393126 0.00017007959419266809
leaf_weight=22 126 34 1957 22 22 22 20 36 28 21 21 40 28 45 20 28 21 21 23 33 33 35 26 23
leaf_count=22 126 34 1957 22 22 22 20 36 28 21 21 40 28 45 20 28 21 21 23 33 33 35 26 23
internal_value=2.34322e-08 -1.20457e-05 1.24793e-05 0.000594368 0.000112987 -0.000169897 -9.22328e-05 -0.000173301 -4.49259e-06 -0.000317567 3.76517e-06 -1.7506e-06 -0.000426933 -8.17869e-05 0.000457446 0.000242117 -0.000217312 3.81354e-05 -4.63446e-05 0.000174432 -0.00027949 0.000260617 -9.96522e-05 -3.0407e-05
internal_weight=2707 2449 2123 56 258 326 255 207 2067 49 2018 1997 71 171 42 48 49 216 135 81 77 58 48 44
internal_count=2707 2449 2123 56 258 326 255 207 2067 49 2018 1997 71 171 42 48 49 216 135 81 77 58 48 44
is_linear=0
shrinkage=0.168553


Tree=36
num_leaves=9
num_cat=0
split_feature=7 16 5 8 4 6 1 10
split_gain=0.000118211 0.000132775 0.000105406 0.000249467 0.000562149 0.000345898 0.00021751 8.91617e-05
threshold=0.0018513654678745555 7.5000000000000009 14.921925645021579 14.870763198159452 14.85596391685673 14.839976190751456 14.817238028275639 7.1914029665483197
decision_type=2 2 2 2 2 2 2 2
left_child=1 7 3 4 5 6 -2 -1
right_child=2 -3 -4 -5 -6 -7 -8 -9
leaf_value=6.1962745075965647e-05 -2.1454338571169148e-06 -5.8475282186170798e-05 -0.00035558819999137529 0.0003974788374233789 -0.00065047288351349612 0.00056498086449228936 -0.00048882048119842393 0.00049878418186568782
leaf_weight=23 2472 38 20 39 34 26 22 33
leaf_count=23 2472 38 20 39 34 26 22 33
internal_value=1.36755e-07 0.00018154 -6.67045e-06 -3.37446e-06 -1.01752e-05 -4.13793e-07 -7.29748e-06 0.00033732
internal_weight=2707 94 2613 2593 2554 2520 2494 56
internal_count=2707 94 2613 2593 2554 2520 2494 56
is_linear=0
shrinkage=0.168553


Tree=37
num_leaves=11
num_cat=0
split_feature=3 10 10 8 8 8 3 11 10 9
split_gain=0.000105244 0.000106174 0.000216423 0.000210255 0.000335991 0.000169837 8.5694e-05 0.000153264 7.675e-05 1.12817e-05
threshold=13.400373758473565 7.1914029665483197 7.2438702572604248 13.465331897324957 13.504669848699244 13.524004296644856 13.412791395814574 9.5562851452214534 7.164151767710135 0.0037667546779977901
decision_type=2 2 2 2 2 2 2 2 2 2
left_child=-1 6 -3 -4 -5 -6 7 -2 9 -9
right_child=1 2 3 4 5 -7 -8 8 -10 -11
leaf_value=0.00028101780175756089 0.00029078585651322715 0.00046610027306707947 -0.00043569286601942089 0.00062619280139015901 -0.00041274913610301228 1.9996842182751394e-06 -0.00042595059406013434 3.7402951948758135e-05 -0.00042177951540412406 -0.00012648242408539411
leaf_weight=33 20 24 27 20 24 2473 23 20 23 20
leaf_count=33 20 24 27 20 24 2473 23 20 23 20
internal_value=1.01399e-07 -3.80772e-06 3.13342e-06 -2.01496e-06 3.37306e-06 -2.68957e-06 -0.000165689 -7.55434e-05 -0.00020358 -4.82872e-05
internal_weight=2707 2674 2568 2544 2517 2497 106 83 63 40
internal_count=2707 2674 2568 2544 2517 2497 106 83 63 40
is_linear=0
shrinkage=0.168553


Tree=38
num_leaves=36
num_cat=0
split_feature=2 14 3 5 2 9 3 16 11 2 5 11 10 14 14 11 7 10 11 8 12 3 8 7 3 2 16 9 15 15 9 9 9 13 2
split_gain=0.000102984 0.000440925 0.000993074 0.000920702 0.000524551 0.000357799 0.000321193 0.000434994 0.000370919 0.000368355 0.000307008 0.000352286 0.000291922 0.000275585 0.000272183 0.000227292 0.000225433 0.000224068 0.000548428 0.000249781 0.000183191 0.000601783 0.000319896 0.000182981 0.000182874 0.000175541 0.000129932 0.000122806 0.000320403 0.000240536 0.000112932 0.000106145 0.000102625 4.83259e-05 4.56953e-05
threshold=13.746696098520232 1.9900000000000002 13.624955013254473 13.730497035470227 13.559972730453675 0.0070606127221494426 13.766845248204922 6.5000000000000009 9.6063845813424855 13.75946902725495 13.784535620676236 9.5672732757799306 7.4699135322253891 2.0050000000000003 -0.89499999999999991 9.5527240565863725 0.0059082241522655033 7.5623123475046059 9.6563394326123451 13.935118826121645 4.3750000000000009 13.722846722649283 13.739105083934108 0.0033952039301169434 13.757351503371618 13.786596415358021 8.5000000000000018 0.0052671950221400881 3.5000000000000004 3.5000000000000004 0.0054994446028849044 0.0073833107038191381 0.0099699356835021204 1.6700000000000002 13.762636929414613
decision_type=2 2 2 2 2 2 2 2 2 2 2 2 2 2 2 2 2 2 2 2 2 2 2 2 2 2 2 2 2 2 2 2 2 2 2
left_child=1 2 4 5 -1 -4 7 8 24 16 11 30 -5 -3 31 27 23 18 -16 -19 22 -22 -17 -9 33 32 -14 29 -29 -15 -8 -12 -13 -2 -11
right_child=6 13 3 12 -6 -7 10 9 -10 34 14 25 26 15 17 20 -18 19 -20 -21 21 -23 -24 -25 -26 -27 -28 28 -30 -31 -32 -33 -34 -35 -36
leaf_value=0.00020599392320360034 -0.00024427687418640472 -0.00048838909677092991 -5.9561217548951321e-05 0.00073203887106261241 0.0013805794403369232 -0.0010370442714224271 -0.00035322558570800589 0.00035620079450311666 -0.0010417822657651954 -0.0004862094364180576 -0.00062890208215490894 0.00044557187888119381 0.00038718546955465391 0.00057190325732951698 5.1268370800627559e-05 0.00040463064171403619 0.00056475779469886687 -0.00015351189873025209 0.00080445980065858022 1.3364866943112371e-05 -4.555359252167455e-05 -0.00083421163062936358 -0.00025438130528261514 -0.00018298681335780366 -0.00059416872135068563 0.00084152845148652788 -3.3081691770871452e-05 -0.000240271215721235 0.00038912897912469894 -4.8447334307780974e-05 0.00010321954318300097 -9.8472632599139008e-05 -4.8414666253752268e-06 5.2698706212953245e-05 -0.00016222891434270267
leaf_weight=20 23 30 20 28 25 20 20 24 20 26 23 33 29 41 297 48 27 354 26 879 228 27 31 44 27 22 54 49 36 28 38 21 23 33 33
leaf_count=20 23 30 20 28 25 20 20 24 20 26 23 33 29 41 297 48 27 354 26 879 228 27 31 44 27 22 54 49 36 28 38 21 23 33 33
internal_value=5.1934e-08 5.47933e-05 0.000267155 5.08747e-05 0.000923567 -0.000602952 -1.96221e-05 -0.000193823 -0.000454253 -1.17308e-05 6.57248e-06 0.000245604 0.00030065 -2.70683e-05 -1.43412e-05 5.31752e-06 0.000190914 -2.07649e-06 0.000121914 -3.48963e-05 -7.26728e-05 -0.000141818 0.000145912 1.69415e-05 -0.000267322 0.000469954 0.000125457 0.000171982 3.19743e-05 0.00033189 -6.74431e-05 -0.000408102 0.000273153 -7.76576e-05 -0.000329135
internal_weight=2707 714 196 151 45 40 1993 257 103 154 1736 136 111 518 1600 488 95 1556 323 1233 334 255 79 68 83 78 83 154 85 69 58 44 56 56 59
internal_count=2707 714 196 151 45 40 1993 257 103 154 1736 136 111 518 1600 488 95 1556 323 1233 334 255 79 68 83 78 83 154 85 69 58 44 56 56 59
is_linear=0
shrinkage=0.168553


Tree=39
num_leaves=15
num_cat=0
split_feature=6 8 16 6 0 12 0 11 14 12 11 7 8 14
split_gain=9.91607e-05 0.000340806 0.000631002 0.000226053 0.000133443 0.000433194 0.00025597 0.000464465 0.000688012 0.000348575 0.000167449 0.00110471 0.000486098 0.000147565
threshold=14.867523766431928 14.890069287321852 2.5000000000000004 14.858753498596023 0.013764477892709516 5.6250000000000009 0.0074544152711357734 9.6686783393176636 2.4450000000000007 5.1250000000000009 9.7169892965317501 0.015052637028214492 14.475446587038318 2.0500000000000003
decision_type=2 2 2 2 2 2 2 2 2 2 2 2 2 2
left_child=3 -2 -3 4 6 13 10 8 -8 -9 12 -12 -1 -6
right_child=1 2 -4 -5 5 -7 7 9 -10 -11 11 -13 -14 -15
leaf_value=1.2511388440418449e-05 -0.00070877240373435756 0.00064081985633115566 -0.0004754038355100644 0.0005164692291680324 0.0007033510792109933 -0.00025886739179145754 -0.0002084242136086838 -8.5139244653867663e-06 0.00055450074014177695 -0.0006842824827951715 -4.1130450522698121e-05 0.0011106303549220445 -0.0004890639157581815 0.00010242245423224683
leaf_weight=2091 20 23 26 20 31 32 111 33 43 60 120 25 52 20
leaf_count=2091 20 23 26 20 31 32 111 33 43 60 120 25 52 20
internal_value=1.19393e-07 -0.000193155 5.75774e-05 5.49659e-06 7.27944e-07 0.000205549 -6.30927e-06 -0.000167773 1.3845e-05 -0.000455931 1.13957e-05 0.000183946 -6.16785e-07 0.000494892
internal_weight=2707 69 49 2638 2618 83 2535 247 154 93 2288 145 2143 51
internal_count=2707 69 49 2638 2618 83 2535 247 154 93 2288 145 2143 51
is_linear=0
shrinkage=0.168553


Tree=40
num_leaves=11
num_cat=0
split_feature=11 11 0 4 8 8 4 3 5 1
split_gain=0.000100786 0.000147263 0.000384483 0.00020982 0.000449829 0.000262569 0.000441264 0.000312448 8.82548e-05 8.43033e-05
threshold=9.75961704710849 9.732770409286875 -0.0010741167476071565 14.732401089934376 14.870763198159452 14.689008723682621 14.669500173025236 14.64493497610094 14.844057908271703 14.866856383438146
decision_type=2 2 2 2 2 2 2 2 2 2
left_child=1 3 -3 5 -5 6 7 -1 -2 -4
right_child=8 2 9 4 -6 -7 -8 -9 -10 -11
leaf_value=2.271432325433424e-08 7.7154479682641762e-06 -0.00022896956633706417 0.00071750609261261823 -0.0007977686932857924 0.00014337693657027502 0.00051455104155844551 -0.00065061493390945985 0.00055305147423489499 -0.00046701891021997028 0.00021206005580448489
leaf_weight=2467 20 29 24 24 27 24 25 25 20 22
leaf_count=2467 20 29 24 24 27 24 25 25 20 22
internal_value=3.0393e-07 4.49866e-06 0.000230657 -2.41161e-06 -0.000327014 4.64262e-06 -1.0917e-06 6.5407e-06 -0.000251633 0.00051571
internal_weight=2707 2667 75 2592 51 2541 2517 2492 40 46
internal_count=2707 2667 75 2592 51 2541 2517 2492 40 46
is_linear=0
shrinkage=0.168553


Tree=41
num_leaves=10
num_cat=0
split_feature=3 2 2 1 0 12 14 0 0
split_gain=9.58468e-05 0.00058626 0.000175754 0.000230388 0.000168235 0.000425906 0.00020721 0.000203391 0.000144934
threshold=14.885894810480274 14.919606664135367 14.85913852279625 14.847626601512658 0.013764477892709516 5.6250000000000009 2.0500000000000003 0.012651755487362417 -0.0010035133878156797
decision_type=2 2 2 2 2 2 2 2 2
left_child=2 -2 3 4 7 6 -6 8 -1
right_child=1 -3 -4 -5 5 -7 -8 -9 -10
leaf_value=5.8077771074814939e-05 -0.00072796876594488386 0.00038483802704994321 0.00034516937773878149 -0.00051671292654834218 0.00080181619630336431 -0.00022048120898287998 8.8251751789541948e-05 -0.00044483960160077743 -2.7624064220113092e-05
leaf_weight=842 25 21 38 20 28 32 20 25 1656
leaf_count=842 25 21 38 20 28 32 20 25 1656
internal_value=2.57297e-07 -0.000230073 4.62035e-06 -8.68437e-07 3.94364e-06 0.000238081 0.000537218 -3.86809e-06 1.30306e-06
internal_weight=2707 46 2661 2623 2603 80 48 2523 2498
internal_count=2707 46 2661 2623 2603 80 48 2523 2498
is_linear=0
shrinkage=0.168553


Tree=42
num_leaves=14
num_cat=0
split_feature=5 6 5 7 9 1 9 2 5 7 15 9 1
split_gain=8.31009e-05 0.000475728 0.000309052 0.000340845 0.00029642 0.000196741 0.000945394 0.00038494 0.000335022 0.000284651 0.000412251 0.000233971 0.000134689
threshold=14.834177340158311 14.784590154189202 14.851715370768508 0.0067005782747654001 0.011424544968686385 14.663522082262283 0.019540017243736038 14.636388176239466 14.69430699918111 0.015995398448572933 3.5000000000000004 0.018855788308864727 14.89443008326524
decision_type=2 2 2 2 2 2 2 2 2 2 2 2 2
left_child=1 5 -2 -4 -5 7 8 9 -7 11 -11 -1 -6
right_child=2 -3 3 4 12 6 -8 -9 -10 10 -12 -13 -14
leaf_value=-1.7069206966203875e-05 -0.00058282372257574685 0.00073311155732610589 -0.00052583240175185493 0.00055086263918895518 -0.00033982312591158731 -0.00024886707208629554 -0.001089336644108716 0.00067466238605300025 0.00052732407230028156 0.00080910600159048618 -0.00013240198058038754 0.00026233095147725199 0.0001812430347518824
leaf_weight=2330 28 21 21 31 24 29 22 20 26 25 22 84 24
leaf_count=2330 28 21 21 31 24 29 22 20 26 25 22 84 24
internal_value=1.41662e-07 6.82606e-06 -0.000130102 1.54856e-05 0.000179744 -3.65635e-07 -0.000258277 8.06758e-06 0.000129389 1.45234e-06 0.000394078 -6.87864e-06 -8.53652e-05
internal_weight=2707 2579 128 100 79 2558 77 2481 55 2461 47 2414 48
internal_count=2707 2579 128 100 79 2558 77 2481 55 2461 47 2414 48
is_linear=0
shrinkage=0.168553


Tree=43
num_leaves=30
num_cat=0
split_feature=16 7 16 0 14 0 8 0 12 4 10 16 7 2 12 7 0 1 4 4 4 8 4 0 7 4 7 1 2
split_gain=9.88704e-05 0.000349927 0.000240643 0.000317665 0.000405634 0.000310882 0.000366354 0.000244547 0.000224225 0.000179694 0.000161797 0.000138097 0.000353964 0.000620454 0.0003745 0.000324516 0.000361663 0.000351096 0.000438257 0.000271599 0.000253292 0.000285026 0.000199284 0.000165943 0.000158806 0.000101697 9.95837e-05 6.24763e-05 2.69787e-05
threshold=10.500000000000002 0.012737103459832803 11.500000000000002 0.0012402092122050237 1.9900000000000002 0.0032206184117642427 13.768738373327505 -0.0010493206392094832 4.8750000000000009 13.821989400671262 7.5998969523873461 9.5000000000000018 0.01115029458094135 13.857132117639182 5.8750000000000009 0.012240962059275108 0.01619718706393947 13.876135069054055 14.457627532803619 14.89443008326524 14.85913852279625 14.475446587038318 13.75522948606301 0.0010485853077852882 0.014264932491407312 13.820000339354564 0.0064948043154838013 13.742401941462708 14.209240352979121
decision_type=2 2 2 2 2 2 2 2 2 2 2 2 2 2 2 2 2 2 2 2 2 2 2 2 2 2 2 2 2
left_child=11 2 3 4 7 6 27 -2 -6 -7 -5 15 13 22 -15 19 17 24 -19 20 21 -1 23 -13 -17 -24 -8 -4 -16
right_child=1 -3 5 10 8 9 26 -9 -10 -11 -12 12 -14 14 28 16 -18 18 -20 -21 -22 -23 25 -25 -26 -27 -28 -29 -30
leaf_value=-4.6850869773924718e-06 0.00043118297518528301 -0.0005667071084482164 4.9431291567684501e-05 -8.5345207392311105e-05 -0.00014238888363963658 7.5577820293812732e-05 0.00055854488265920832 -0.00028243823623666227 -0.00074500223881811094 -0.00048364056397046557 0.00045047643939087595 0.00036911392600188868 -0.00037046297125572662 0.0011458683737769026 0.00010532179217634589 0.00023004581207915767 -0.00038029716826817119 0.00090783824081443383 0.00020131819522182417 -0.00056834672250485917 0.00042745837943550377 -0.00028181788982495912 -0.00049701757655512449 -0.00011938214159066567 -0.00029851990596418921 -3.1017285091413935e-05 0.0001858614942620462 -0.0002868539949491734 0.00040511007370045663
leaf_weight=1715 23 33 30 34 30 29 55 23 49 30 24 45 29 22 20 27 22 37 72 21 32 108 20 30 29 31 41 26 20
leaf_count=1715 23 33 30 34 30 29 55 23 49 30 24 45 29 22 20 27 22 37 72 21 32 108 20 30 29 31 41 26 20
internal_value=3.34058e-07 -7.36646e-05 -2.65335e-05 -0.000166018 -0.000313923 9.52233e-05 0.000221328 8.0262e-05 -0.000535964 -0.000222068 0.000151949 1.43194e-05 0.000140833 0.000226476 0.000643562 7.28573e-07 0.000209849 0.000296486 0.00046715 -2.05408e-05 -1.30025e-05 -2.17536e-05 6.32987e-06 0.000177544 -4.50007e-05 -0.000239082 0.000414685 -0.000115695 0.000280995
internal_weight=2707 427 394 183 125 211 152 46 79 59 58 2280 217 188 62 2063 187 165 109 1876 1855 1823 126 75 56 51 96 56 40
internal_count=2707 427 394 183 125 211 152 46 79 59 58 2280 217 188 62 2063 187 165 109 1876 1855 1823 126 75 56 51 96 56 40
is_linear=0
shrinkage=0.168553


Tree=44
num_leaves=11
num_cat=0
split_feature=4 5 15 3 0 8 9 4 4 8
split_gain=8.90787e-05 0.000511011 0.000344701 0.000317317 0.00015559 0.000169646 0.000486022 0.000403458 0.000192655 0.000170774
threshold=14.85596391685673 14.875208618016027 2.5000000000000004 14.841372910203591 0.019984167974029358 14.644048980206486 0.019540017243736038 14.562195697780568 14.716890594681043 14.475446587038318
decision_type=2 2 2 2 2 2 2 2 2 2
left_child=3 -2 -3 4 5 7 8 9 -7 -1
right_child=1 2 -4 -5 -6 6 -8 -9 -10 -11
leaf_value=4.8670380726726333e-06 -0.00064880757916379618 -0.00029671710513865993 0.0004660382324977127 0.00054793271006727765 0.00040725567407485629 -0.00021669449348787485 -0.00071440750299275521 0.00062628588299124682 0.0002693244197927181 -0.00028454711834408151
leaf_weight=2370 33 26 34 26 22 43 32 25 41 55
leaf_count=2370 33 26 34 26 22 43 32 25 41 55
internal_value=3.80928e-07 -0.000157909 0.000137365 6.27753e-06 -6.78101e-08 -4.25767e-06 -0.000199625 5.31983e-06 2.17954e-05 -2.18542e-06
internal_weight=2707 93 60 2614 2588 2566 116 2450 84 2425
internal_count=2707 93 60 2614 2588 2566 116 2450 84 2425
is_linear=0
shrinkage=0.168553


Tree=45
num_leaves=24
num_cat=0
split_feature=11 11 10 10 9 9 1 9 10 2 5 2 10 14 14 3 8 10 10 10 11 15 1
split_gain=8.71609e-05 0.000244296 0.000498842 0.00113975 0.00029248 0.000367083 0.000414376 0.000226721 0.000250357 0.000247971 0.000156706 0.000216643 0.000204338 0.000254185 0.000141059 0.000182603 0.000668589 0.000255979 0.000192472 0.000170784 0.000108586 9.29986e-05 1.88885e-05
threshold=9.5523863320570221 9.5662265185618605 7.3187812100482512 7.1727123260385328 0.015714877236407968 0.010138522913825639 13.67911382798526 0.0082754652314384353 7.4913805190628002 13.743477210694323 13.729407710420617 13.725038505006699 7.4145608156475999 -0.89499999999999991 3.4200000000000004 13.544357572467691 13.558848860486746 7.2988441751598581 7.4882179658176886 7.3700152333460531 9.5466658342704935 3.5000000000000004 13.480734680451741
decision_type=2 2 2 2 2 2 2 2 2 2 2 2 2 2 2 2 2 2 2 2 2 2 2
left_child=14 4 3 -3 5 7 -7 8 -2 -9 11 -4 -12 -14 15 17 -17 21 19 -18 -20 22 -1
right_child=1 2 10 -5 -6 6 -8 9 -10 -11 12 -13 13 -15 -16 16 18 -19 20 -21 -22 -23 -24
leaf_value=0.00038179384502932116 1.7838102131453188e-05 -0.00013779811279954435 2.7836613228381617e-05 0.0013225577618849378 -0.00070554922631472247 0.00073749676168043566 -0.00017147169814786433 -0.00076993494455718096 -0.00037375900326423929 -2.4023665828411114e-05 0.00038217487610597237 -0.00056064912638650768 -0.00025820184163948679 1.3312772281379396e-05 -0.00029336105475948396 -0.00069492117035621843 5.111518113961435e-05 0.00072804901309496243 -0.00020206566666358336 0.0006600670080225894 0.00025299639415925641 -0.00010469336370808018 0.00011746321178779757
leaf_weight=20 158 34 37 22 20 25 25 29 61 21 36 29 99 1866 20 26 23 25 34 29 20 28 20
leaf_count=20 158 34 37 22 20 25 25 29 61 21 36 29 99 1866 20 26 23 25 34 29 20 28 20
internal_value=3.60339e-07 -9.23142e-06 1.20664e-05 0.000489657 -0.000141148 -9.66169e-05 0.000305241 -0.000175102 -9.62888e-05 -0.000484289 -1.86488e-06 -0.000249098 6.80073e-06 -8.94846e-07 9.5334e-05 0.00013494 5.37513e-06 0.000310051 0.00019812 0.000416073 -2.6714e-05 0.000121295 0.000274858
internal_weight=2707 2462 2123 56 339 319 50 269 219 50 2067 66 2001 1965 245 225 132 93 106 52 54 68 40
internal_count=2707 2462 2123 56 339 319 50 269 219 50 2067 66 2001 1965 245 225 132 93 106 52 54 68 40
is_linear=0
shrinkage=0.168553


Tree=46
num_leaves=26
num_cat=0
split_feature=7 15 14 7 9 9 11 7 7 7 8 15 7 9 10 11 11 14 0 0 15 14 0 0 7
split_gain=7.79438e-05 0.000275012 0.000328461 0.000131386 0.000170222 0.000375741 0.000587581 0.000370924 0.000179211 0.00042083 0.000302916 0.000177563 0.000203403 0.000315729 0.000223011 0.000169164 0.000123985 0.000121249 0.000117857 0.000109502 8.96039e-05 8.88105e-05 8.15384e-05 4.97302e-05 2.52307e-05
threshold=0.0021326371205426888 1.5000000000000002 2.7000000000000006 0.0029473032037221013 0.0050318977634443872 0.0059605727018397095 9.6571073548378745 0.0059988253549173544 0.0062576106889608235 0.0048011503639920567 13.620414432712954 3.5000000000000004 0.0045604991284990031 0.0035595676173474779 7.4711724040961949 9.6088479972634904 9.5784254647420486 2.1850000000000005 -0.0053078695834649628 -0.0026204988878815168 3.5000000000000004 1.8050000000000004 0.0012402092122050237 0.0013950592464730962 0.0024245843013659869
decision_type=2 2 2 2 2 2 2 2 2 2 2 2 2 2 2 2 2 2 2 2 2 2 2 2 2
left_child=1 -1 16 18 11 6 7 -6 9 -7 -10 12 13 -5 -14 17 -3 -13 -2 -20 -18 24 -23 -17 -21
right_child=3 2 -4 4 5 8 -8 -9 10 -11 -12 15 14 -15 -16 23 20 -19 19 21 -22 22 -24 -25 -26
leaf_value=-0.00028053875865873045 0.00022736941508620147 0.00025950047359900297 0.00064666690886653797 -6.7674627013698601e-05 -0.00021424764730060451 -5.4590213386261918e-05 -0.00079613882652138275 0.00029286787241766289 -0.00027931336079773549 0.0002217666797179885 3.913083932816165e-06 -0.0003214926762056429 0.0003341709426191847 0.00045163710436534711 -0.00026361470650779586 0.00032581368919487851 9.8784486479715339e-05 6.9538822988564759e-05 -0.00049263414582051738 -0.00044019590187995586 -0.00034232232069090031 -0.00013589598059120838 0.0001308682483394797 2.0418279160229259e-06 -0.00014719512693999742
leaf_weight=34 20 37 34 45 164 305 36 50 116 314 984 55 24 112 43 29 22 34 22 21 23 92 45 23 23
leaf_count=34 20 37 34 45 164 305 36 50 116 314 984 55 24 112 43 29 22 34 22 21 23 92 45 23 23
internal_value=4.05505e-07 0.00011673 0.000239365 -6.59484e-06 5.2987e-06 -1.43553e-05 -0.000205567 -9.21424e-05 1.38876e-05 8.61237e-05 -2.69159e-05 0.000110315 0.000202219 0.000304812 -4.17337e-05 -3.71829e-05 4.59778e-05 -0.000175543 -0.000128911 -0.000168202 -0.000136441 -0.000117929 -4.67349e-05 0.000194372 -0.000314763
internal_weight=2707 150 116 2557 2334 1969 250 214 1719 619 1100 365 224 157 67 141 82 89 223 203 45 181 137 52 44
internal_count=2707 150 116 2557 2334 1969 250 214 1719 619 1100 365 224 157 67 141 82 89 223 203 45 181 137 52 44
is_linear=0
shrinkage=0.168553


Tree=47
num_leaves=19
num_cat=0
split_feature=5 4 6 10 6 9 11 9 6 10 8 7 7 16 4 11 1 7
split_gain=8.08412e-05 0.000492948 0.000302767 0.000631472 0.000525511 0.000311787 0.000554164 0.000316247 0.000302177 0.000512046 0.000280198 0.000274409 0.000673291 0.00029569 0.000256854 0.000246864 0.000199229 0.000105152
threshold=13.878015653004697 13.898011355530024 13.855592002464055 7.5737855947413513 13.849611009439812 0.018637141981345726 9.5788786806768886 0.016189535145622588 13.924666903464404 7.6043463662209616 13.868595611950695 0.0059988253549173544 0.0049324565789007156 10.500000000000002 13.874250941842186 9.6623136833583345 13.885502821112862 0.0047338810446612553
decision_type=2 2 2 2 2 2 2 2 2 2 2 2 2 2 2 2 2 2
left_child=2 16 4 10 5 7 -7 15 -3 -10 -4 12 -11 -13 -5 -1 17 -2
right_child=1 8 3 14 -6 6 -8 -9 9 11 -12 13 -14 -15 -16 -17 -18 -19
leaf_value=2.0887028550390993e-05 2.1513134718981548e-05 0.00043656511248132041 0.00097162424255476342 -0.00038432924884185141 -0.00074339366088924325 -0.00024358574202247362 0.00080317137129880093 -0.00054718104493677857 -0.00075072781237369053 -4.632757893725105e-05 0.00025773309207932703 -1.2650941171402277e-05 0.00046805878518016897 -0.00033518625901571888 0.00029986746356089865 -0.00052022763281038781 -0.00065261874156760072 -0.00041367921931359503
leaf_weight=1391 36 39 29 37 22 21 32 25 22 211 38 502 105 92 21 20 41 23
leaf_count=1391 36 39 29 37 22 21 32 25 22 211 38 502 105 92 21 20 41 23
internal_value=1.25931e-07 -3.57808e-05 2.36821e-05 0.000271161 2.46723e-06 1.56498e-05 0.000400964 2.35358e-07 1.5972e-06 -1.85267e-05 0.000607707 2.64765e-06 0.000128557 -6.47368e-05 -0.000132494 1.16142e-05 -0.000383862 -0.000164521
internal_weight=2707 1071 1636 125 1511 1489 53 1436 971 932 67 910 316 594 58 1411 100 59
internal_count=2707 1071 1636 125 1511 1489 53 1436 971 932 67 910 316 594 58 1411 100 59
is_linear=0
shrinkage=0.168553


Tree=48
num_leaves=30
num_cat=0
split_feature=0 11 11 11 15 14 0 4 16 1 11 11 16 15 11 3 16 10 16 11 3 0 10 11 15 10 0 0 0
split_gain=8.06792e-05 0.000202009 0.00018872 0.000364448 0.000178399 0.000274332 0.000237306 0.000170914 0.000170042 0.000186506 0.000470059 0.000362464 0.000186394 0.000811454 0.000385222 0.000217378 0.000166138 0.000268263 0.000224877 0.00014944 0.000179119 0.000141443 0.000113058 0.000103378 9.98014e-05 0.000148265 6.90955e-05 8.75878e-05 5.65902e-05
threshold=-0.0010035133878156797 9.5518476583202148 9.7356929435794211 9.7266728168896268 2.5000000000000004 3.6850000000000005 -0.0012836977526227142 14.85596391685673 10.500000000000002 14.226626282650015 9.6523945262495534 9.6869471446454885 1.5000000000000002 1.5000000000000002 9.6946320638450025 13.933737840651217 3.5000000000000004 7.3272447264703322 6.5000000000000009 9.5623730778345521 13.739169179088156 0.0040837229211145862 7.595256548877436 9.5581587040874094 1.0000000180025095e-35 7.4998908065422336 0.0012402092122050237 0.0038809896774836265 0.0026917965417361249
decision_type=2 2 2 2 2 2 2 2 2 2 2 2 2 2 2 2 2 2 2 2 2 2 2 2 2 2 2 2 2
left_child=2 24 3 4 5 6 -1 -4 12 10 22 -11 13 15 -15 -3 17 -14 -18 23 -21 -13 -10 -6 -2 26 -26 -28 -12
right_child=1 8 7 -5 19 -7 -8 -9 9 11 28 21 16 14 -16 -17 18 -19 -20 20 -22 -23 -24 -25 25 -27 27 -29 -30
leaf_value=0 -9.1453110923990865e-05 -2.2635716365825169e-05 5.4922484709378815e-05 0.00063274557470649473 -9.8327630179758049e-05 0.00055477561850979544 0.00044381655846460901 -0.00059786840460664744 -0.00031695965363406345 -0.00080278032355812637 0.00015939296287908469 0.00015682422056196497 0.00056049040048282135 -0.00021375963974946678 -0.00096895942327495982 0.00070470301102839878 -0.0001136176786348855 5.6466741701310705e-05 4.442168870455778e-05 0.00031155182598266467 -1.4880143376568945e-05 -0.00037853438408838602 6.6775678627600834e-05 -0.00049657315582995847 0.00050464719942202847 -0.00012468386033948959 -4.1529221483963414e-05 0.00034996148514294609 0.00055624127298731316
leaf_weight=198 32 21 20 26 82 36 37 20 96 29 26 29 30 56 28 21 463 249 561 50 389 20 26 21 35 24 26 35 21
leaf_count=198 32 21 20 26 82 36 37 20 96 29 26 29 30 56 28 21 463 249 561 50 389 20 26 21 35 24 26 35 21
internal_value=-2.53778e-07 -2.04353e-05 4.15777e-05 5.9239e-05 3.7578e-05 0.000148081 7.66679e-05 -0.000297574 -3.7455e-05 -0.00016532 -6.19896e-05 -0.00037369 -1.48972e-05 -0.00020706 -0.000501287 0.000372565 4.29334e-06 0.000118572 -2.71871e-05 -1.8364e-05 2.49396e-05 -7.4262e-05 -0.000235474 -0.000196696 0.000162849 0.000231723 0.000322656 0.000191042 0.0003695
internal_weight=2707 1828 879 839 813 271 235 40 1676 247 169 78 1429 126 84 42 1303 279 1024 542 439 49 122 103 152 120 96 61 47
internal_count=2707 1828 879 839 813 271 235 40 1676 247 169 78 1429 126 84 42 1303 279 1024 542 439 49 122 103 152 120 96 61 47
is_linear=0
shrinkage=0.168553


Tree=49
num_leaves=22
num_cat=0
split_feature=14 1 5 7 15 10 4 7 13 4 7 1 7 15 11 11 1 16 11 12 10
split_gain=8.29432e-05 0.000556688 0.000617846 0.000583005 0.000488063 0.00020006 0.000380215 0.000198119 0.00018272 0.000289541 0.000490322 0.000147606 0.000135676 0.000270262 0.000303994 0.000214014 0.000389578 0.000311453 0.000269045 0.000219094 0.000132822
threshold=3.0650000000000004 14.468355899780379 14.395764217394408 0.010737929057155357 3.5000000000000004 7.9695494209700604 14.289568409104248 0.012098786563343719 1.4000000000000001 13.842639106953973 0.0064322014236617188 14.369395506043375 0.016945649404507709 2.5000000000000004 9.7214769093540792 9.6396196576538884 13.887365886797424 7.5000000000000009 9.6486372303328505 4.6250000000000009 7.4979362970420587
decision_type=2 2 2 2 2 2 2 2 2 2 2 2 2 2 2 2 2 2 2 2 2
left_child=8 2 5 -4 -3 6 7 -2 9 10 20 -7 15 -14 -15 16 17 -10 -17 -20 -1
right_child=1 4 3 -5 -6 11 -8 -9 12 -11 -12 -13 13 14 -16 18 -18 -19 19 -21 -22
leaf_value=-5.1798255625555202e-05 -3.231847508849245e-05 -0.0010509117075763802 5.980298607126954e-06 0.0010835754183641843 1.6357168336916512e-05 -0.00061313702412323643 0.0006245520166397729 -0.00048977471565445204 8.6983240745681559e-05 -0.00070119329876113044 0.00046716293248211645 -3.7964076153920441e-05 0.00023857716373031871 4.2509626809000366e-06 -0.00084805844746122731 0.00055390024390803328 -0.00062449248126323134 -8.1265265761758658e-05 -0.00035865015534689997 0.00012655778884771102 -0.00051411630189654206
leaf_weight=35 544 24 30 23 21 26 20 24 759 20 31 23 23 23 20 36 23 525 24 419 34
leaf_count=35 544 24 30 23 21 26 20 24 759 20 31 23 23 23 20 36 23 525 24 419 34
internal_value=8.81502e-09 -4.81407e-05 -8.91994e-06 0.000521035 -0.000594922 -5.63079e-05 -2.76803e-05 -5.52896e-05 1.80361e-05 -0.00017978 -5.02292e-05 -0.000368908 3.1262e-05 -0.000198443 -0.000433243 4.02301e-05 4.75186e-06 1.81257e-05 0.000136059 9.69606e-05 -0.000297049
internal_weight=2707 735 690 53 45 637 588 568 1972 120 100 49 1852 66 43 1786 1307 1284 479 443 69
internal_count=2707 735 690 53 45 637 588 568 1972 120 100 49 1852 66 43 1786 1307 1284 479 443 69
is_linear=0
shrinkage=0.168553


Tree=50
num_leaves=9
num_cat=0
split_feature=9 7 11 9 7 11 5 5
split_gain=8.05144e-05 9.69947e-05 0.000393724 9.78809e-05 0.000139273 0.000134022 0.000483114 0.000446186
threshold=0.03782568097893451 0.017926262439774746 9.7169892965317501 0.024779678074634791 0.015995398448572933 9.7223013272836134 14.636388176239466 14.465489209054914
decision_type=2 2 2 2 2 2 2 2
left_child=1 3 -3 4 5 7 -7 -1
right_child=-2 2 -4 -5 -6 6 -8 -9
leaf_value=-1.0913296859501948e-05 -0.00030556884171723686 -0.00028374468265026303 0.00059503098898981959 -0.00029840498749631166 0.00038650671493319083 -0.00084229686759673542 -2.994819831768625e-05 0.00029362676768364984
leaf_weight=2281 20 22 29 27 22 20 145 141
leaf_count=2281 20 22 29 27 22 20 145 141
internal_value=-5.73623e-07 2.17852e-06 0.000222964 -2.44437e-06 1.10154e-06 -2.81138e-06 -0.000147777 7.30119e-06
internal_weight=2707 2687 51 2636 2609 2587 165 2422
internal_count=2707 2687 51 2636 2609 2587 165 2422
is_linear=0
shrinkage=0.168553


Tree=51
num_leaves=11
num_cat=0
split_feature=6 9 9 7 7 2 11 15 5 6
split_gain=8.31081e-05 0.000259222 0.000181724 0.000150726 0.000239712 0.000144405 0.000110336 0.000374659 0.000317437 8.28951e-05
threshold=14.867523766431928 0.02098188598734008 0.025446514422851625 0.018672213995383564 0.015995398448572933 14.912955484959026 9.7223013272836134 4.5000000000000009 14.463398797907949 14.477844688544559
decision_type=2 2 2 2 2 2 2 2 2 2
left_child=2 5 3 4 6 -2 8 -8 -1 -4
right_child=1 -3 9 -5 -6 -7 7 -9 -10 -11
